GIS
1
0.0
2
ENTAILMENT
NONENTAILMENT
1
26 0 1
26
BagOfLemmasScoring_2
BagOfLemmasScoring_0
BagOfLemmasScoring_1
TreeSkeletonScoring_2
TreeSkeletonScoring_1
TreeSkeletonScoring_0
BagOfWordsScoring_0
BagOfWordsScoring_1
BagOfWordsScoring_2
TreeSkeletonScoring_6
TreeSkeletonScoring_12
BagOfWordsScoring_3
TreeSkeletonScoring_5
TreeSkeletonScoring_13
TreeSkeletonScoring_14
BagOfWordsScoring_4
TreeSkeletonScoring_4
TreeSkeletonScoring_15
BagOfWordsScoring_5
TreeSkeletonScoring_3
BagOfWordsScoring_6
TreeSkeletonScoring_9
TreeSkeletonScoring_8
TreeSkeletonScoring_10
TreeSkeletonScoring_7
TreeSkeletonScoring_11
0.8074763198427248
-1.1544149720407721
0.6293981980737537
-0.8232822015251049
0.12143086188665732
-0.1405870554268063
-0.06015197968950266
0.08648662961534412
0.013877997899892386
-0.018345790025902017
0.047844408042251346
-0.06668663172734723
1.2240141275741896
-1.7015273081590225
0.1738074771925811
-0.21911222049618187
0.12347132332288603
-0.16114035783816108
0.09099482543765648
-0.12155378881935623
-0.06625342620691438
0.10355819762206415
-1.3338345872363115
1.644079772039706
0.18513724416902794
-0.282847252226769
0.5067222068950201
-0.9074514201115229
-0.4526781290456767
0.7285674640852974
-1.2856906756172564
1.0903779845692272
0.12455338823317531
-0.19686291159306454
-1.4030641192129067
2.474938969602373
-1.1981523097794626
1.3908919580188026
0.04303988366721555
-0.058977546156726984
-1.1211058442159285
1.2738491997441816
-0.10748969271771233
0.19857090211522
-0.008600943548642217
0.03315886025662834
-0.015393116559178839
0.022685760537529364
-0.5750852258848553
0.877017175513011
-1.5511983432866707
1.9344522412811784
