GIS
1
0.0
2
ENTAILMENT
NONENTAILMENT
1
39 0 1
39
BagOfLexesScoring_0
BagOfLemmasScoring_2
BagOfDepsPosScoring_10
BagOfDepsPosScoring_11
BagOfLemmasScoring_0
BagOfLemmasScoring_1
BagOfDepsPosScoring_9
BagOfDepsPosScoring_7
BagOfDepsPosScoring_8
BagOfDepsPosScoring_5
BagOfDepsPosScoring_6
BagOfDepsPosScoring_3
BagOfDepsPosScoring_4
BagOfDepsPosScoring_1
BagOfDepsPosScoring_2
BagOfDepsPosScoring_0
TreeSkeletonScoring_2
TreeSkeletonScoring_1
BagOfWordsScoring_0
TreeSkeletonScoring_0
BagOfWordsScoring_1
TreeSkeletonScoring_12
TreeSkeletonScoring_6
BagOfWordsScoring_2
TreeSkeletonScoring_13
TreeSkeletonScoring_5
BagOfWordsScoring_3
TreeSkeletonScoring_14
TreeSkeletonScoring_4
BagOfWordsScoring_4
TreeSkeletonScoring_15
TreeSkeletonScoring_3
BagOfWordsScoring_5
BagOfWordsScoring_6
TreeSkeletonScoring_9
TreeSkeletonScoring_10
TreeSkeletonScoring_8
TreeSkeletonScoring_11
TreeSkeletonScoring_7
0.2884104880878
-0.3464160896272196
0.5088097468627792
-0.7142527864355531
-0.6815683263875871
1.051938478744652
-0.18457735532061914
0.3345911672709677
0.5157322069229733
-0.6739729004117271
-0.02563532521573858
0.03611330421150798
-0.2520645988019819
0.4531169153114397
-0.4836198520725982
0.5907633576980379
1.764734648030718
-2.5496642395773126
0.2812153977484386
-0.39275040125592897
0.28379855588666936
-0.3689992743558019
-0.23071021914814668
0.3283055699242441
0.48729350068820443
-0.6250376953044091
0.37825662042404845
-0.5814501254888682
1.4651496830059603
-2.6238607588273366
-0.14850148124081958
0.27218357825835
-0.048768836220130715
0.07020544926861016
0.006818289179663872
-0.008172094126184113
1.2033537326858497
-1.6738167871396907
0.04548886802255071
-0.0634630267589806
0.25394439005923314
-0.3225622559651242
-0.8918774940343555
1.3532094119313633
-0.7632894676126338
1.3680801728640717
0.21884201123276883
-0.31040730905755815
0.6996378517250196
-1.2785635713583363
0.16198717167531704
-0.2500591204604558
-1.4418870683648588
1.7711287980420545
-0.20897148703475002
0.338236943667564
0.2073427323132912
-0.3610981873808284
-1.422365887772013
1.200099029139379
-1.6436419347336717
2.8930951593774723
0.03996944412087656
-0.05484414409058652
-1.3137184197613105
1.5185429064968667
-1.2267738314125578
1.3875704385945913
-0.7068614659654886
1.0536053017385032
-0.24031926017840347
0.3277100173621538
-0.025136490392425603
0.04690999040846636
-1.771420699557808
2.206096032227901
-0.3588172223358417
0.5462717130377711
