GIS
1
0.0
2
ENTAILMENT
NONENTAILMENT
2
3
49 0 1
52
BagOfWordsScoring_4
BagOfWordsScoring_5
BagOfWordsScoring_6
BagOfLemmasScoring_2
BagOfDepsPosScoring_10
BagOfDepsPosScoring_11
BagOfLemmasScoring_0
BagOfLemmasScoring_1
BagOfDepsScoring_6
BagOfDepsScoring_5
BagOfDepsScoring_4
BagOfDepsScoring_3
TreeSkeletonScoring_2
BagOfDepsScoring_9
TreeSkeletonScoring_1
BagOfDepsScoring_8
TreeSkeletonScoring_0
BagOfDepsScoring_7
TreeSkeletonScoring_6
TreeSkeletonScoring_5
TreeSkeletonScoring_4
TreeSkeletonScoring_3
BagOfDepsScoring_10
BagOfDepsScoring_11
TreeSkeletonScoring_9
TreeSkeletonScoring_8
TreeSkeletonScoring_7
BagOfDepsScoring_0
BagOfDepsScoring_1
BagOfDepsScoring_2
BagOfDepsPosScoring_9
BagOfDepsPosScoring_7
BagOfDepsPosScoring_8
BagOfDepsPosScoring_5
BagOfDepsPosScoring_6
BagOfDepsPosScoring_3
BagOfDepsPosScoring_4
BagOfDepsPosScoring_1
BagOfDepsPosScoring_2
BagOfDepsPosScoring_0
BagOfWordsScoring_0
BagOfWordsScoring_1
TreeSkeletonScoring_12
BagOfWordsScoring_2
TreeSkeletonScoring_13
BagOfWordsScoring_3
TreeSkeletonScoring_14
BagOfLexesScoringEN_0
TreeSkeletonScoring_15
BagOfLexesScoringEN_1
TreeSkeletonScoring_10
TreeSkeletonScoring_11
-0.20343591677378722
0.12147525025715442
-0.5694354864653912
0.30522700002044184
-1.294742887579298
0.4587769771536161
-0.1236845330483094
0.0829382927142456
-0.4351582668945122
0.21457934139623094
-0.15233147687331278
0.09678622974174032
0.6189333454657521
-1.944497742617402
0.30759164468196293
-0.3946977594561178
0.4226846059996232
-0.7001467389363015
0.15572245270124857
-0.14990009166389795
-0.34587891095475626
0.21998542862639767
0.15572245270124857
-0.14990009166389795
-0.477547762013814
0.21440863621523673
-1.091477595220908
0.3763892892278782
-0.6077138105995167
0.2554214896417228
-1.294742887579298
0.4587769771536161
-0.5694354864653912
0.30522700002044184
-0.34587891095475626
0.21998542862639767
0.22367749864555464
-0.24521452111008557
-0.5694354864653912
0.30522700002044184
-1.294742887579298
0.4587769771536161
0.6189333454657521
-1.944497742617402
0.30759164468196293
-0.3946977594561178
0.4226846059996232
-0.7001467389363015
-0.34587891095475626
0.21998542862639767
-0.5694354864653912
0.30522700002044184
-1.294742887579298
0.4587769771536161
-0.34587891095475626
0.21998542862639767
-0.5326314539502309
0.2379532607820177
-0.3231936712490055
0.1666551342435066
0.6189333454657521
-1.944497742617402
-0.10766741190241541
0.07230786477657013
0.4226846059996232
-0.7001467389363015
0.30759164468196293
-0.3946977594561178
-0.5694354864653912
0.30522700002044184
-1.294742887579298
0.4587769771536161
-0.34587891095475626
0.21998542862639767
-0.24362301186444837
0.14601536741600574
-0.5814703060070078
0.2588354776445433
-0.477547762013814
0.21440863621523673
-0.45304609288186715
0.2206301936617974
-0.34587891095475626
0.21998542862639767
-0.360281854407851
0.19597041617592884
-0.5694354864653912
0.30522700002044184
-0.2755666984436936
0.15945446970141502
-1.294742887579298
0.4587769771536161
-0.1236845330483094
0.0829382927142456
-0.15233147687331278
0.09678622974174032
-0.6077138105995167
0.2554214896417228
