GIS
1
0.0
2
ENTAILMENT
NONENTAILMENT
1
12 0 1
12
BagOfDepsPosScoring_0
BagOfDepsPosScoring_9
BagOfDepsPosScoring_7
BagOfDepsPosScoring_8
BagOfDepsPosScoring_5
BagOfDepsPosScoring_6
BagOfDepsPosScoring_10
BagOfDepsPosScoring_3
BagOfDepsPosScoring_11
BagOfDepsPosScoring_4
BagOfDepsPosScoring_1
BagOfDepsPosScoring_2
-0.5864164863526857
1.0642828148184469
1.6598785461966692
-2.821018422687216
-5.687278901077403
6.878613818337343
7.78435891699636
-11.19098995129577
-2.006110839266098
2.928611968480484
-0.03785914953919483
0.05387211782451411
-0.8728353154647822
1.351348455014166
-0.3286535644678449
0.4738196250606478
-2.4286792642967265
4.350770131651026
2.1136488653921535
-2.7348377593953823
1.006826832079608
-1.5460930263138808
-0.877674520249811
1.6242609794913376
