GIS
1
0.0
2
ENTAILMENT
NONENTAILMENT
1
26 0 1
26
BagOfLemmasScoring_2
BagOfLemmasScoring_0
BagOfLemmasScoring_1
TreeSkeletonScoring_2
TreeSkeletonScoring_1
TreeSkeletonScoring_0
BagOfWordsScoring_0
BagOfWordsScoring_1
BagOfWordsScoring_2
TreeSkeletonScoring_6
TreeSkeletonScoring_12
BagOfWordsScoring_3
TreeSkeletonScoring_5
TreeSkeletonScoring_13
TreeSkeletonScoring_14
BagOfWordsScoring_4
TreeSkeletonScoring_4
TreeSkeletonScoring_15
BagOfWordsScoring_5
TreeSkeletonScoring_3
BagOfWordsScoring_6
TreeSkeletonScoring_9
TreeSkeletonScoring_8
TreeSkeletonScoring_10
TreeSkeletonScoring_7
TreeSkeletonScoring_11
0.853819614992366
-1.316632420308875
0.7255336428688423
-0.968214278101692
-0.20495663039481596
0.2701872369693029
-0.11386459411300914
0.16156957422084295
0.08776471617584508
-0.1287013962479041
0.028640596564381986
-0.03897782568613847
0.7104033394242933
-0.9809880956215328
-0.3138360956787607
0.42456190531699267
0.4889081848166165
-0.7821887897219595
-0.18802057822991197
0.5433464837885363
0.8549957748235687
-1.5482708034256045
-1.3163806513169691
1.6281170917926784
0.20655350385877808
-0.39154924800705704
0.09801583898524127
-0.1617946598415899
0.07657287092690683
-0.12690341666680147
-1.3631713698101842
1.1379823259664712
0.07678221970246804
-0.11720354064176206
-0.7822929927356701
1.9960648531052707
-1.1907278464295459
1.4101770584108466
0.01696161838665107
-0.022144656976107097
-1.097344891724545
1.3007139735411748
-1.0202863884582392
1.9751666826239063
-1.1304249052031279
1.783354090212673
0.006466637744580867
-0.0026651958896875137
0.2529463931560731
-0.40871472619542365
-0.05080819957044004
0.0786255617281752
