GIS
1
0.0
2
ENTAILMENT
NONENTAILMENT
1
40 0 1
40
BagOfLexesScoring_0
BagOfLemmasScoring_2
BagOfLexesScoring_1
BagOfDepsPosScoring_10
BagOfDepsPosScoring_11
BagOfLemmasScoring_0
BagOfLemmasScoring_1
BagOfDepsPosScoring_9
BagOfDepsPosScoring_7
BagOfDepsPosScoring_8
BagOfDepsPosScoring_5
BagOfDepsPosScoring_6
BagOfDepsPosScoring_3
BagOfDepsPosScoring_4
BagOfDepsPosScoring_1
BagOfDepsPosScoring_2
BagOfDepsPosScoring_0
TreeSkeletonScoring_2
TreeSkeletonScoring_1
TreeSkeletonScoring_0
BagOfWordsScoring_0
BagOfWordsScoring_1
TreeSkeletonScoring_12
TreeSkeletonScoring_6
BagOfWordsScoring_2
TreeSkeletonScoring_13
TreeSkeletonScoring_5
BagOfWordsScoring_3
TreeSkeletonScoring_14
TreeSkeletonScoring_4
BagOfWordsScoring_4
TreeSkeletonScoring_15
TreeSkeletonScoring_3
BagOfWordsScoring_5
BagOfWordsScoring_6
TreeSkeletonScoring_9
TreeSkeletonScoring_10
TreeSkeletonScoring_8
TreeSkeletonScoring_11
TreeSkeletonScoring_7
0.18362083933279585
-0.21981801504264792
0.3362517463010997
-0.46508950330249565
0.6243458399780887
-0.8139011209639886
-0.6744490826873992
1.040863258588534
-0.1684649040453595
0.30575513892218714
0.21739090039967107
-0.28245238483140017
-0.08035163676768217
0.1027556907976425
-0.25317493910623246
0.4548245354211472
-0.4147055731668145
0.5082565609585911
1.7412059024513251
-2.515571484070953
0.26817628187483633
-0.37410389882063627
0.16481014607734273
-0.21419369994531517
-0.26775237315685746
0.381129783637045
0.4749341091826938
-0.6088059180950877
0.3738190146354332
-0.5747816230808046
1.449943094342153
-2.5967217749519658
-0.13236539210307585
0.24396343881416507
-0.049715446469059614
0.07151763515369396
0.00960873295067983
-0.012314047202872252
0.043192683558824295
-0.0602288514371462
1.0674718023176923
-1.4861951590787763
0.3086993287337659
-0.39264563469034663
-0.8088794032623907
1.2267931659791478
-0.8102533041073178
1.449509572735469
0.25954971746818556
-0.376241516854656
0.6891356017162141
-1.2591799423948098
0.12761140298125045
-0.19637705558792057
-1.4662073748970834
1.8036199660043473
-0.2494320271601982
0.4018896150747386
0.23177959307484466
-0.40651186961859753
-1.4497209394177455
1.2243368129536687
-1.6544608649210375
2.911829586411895
0.036278285565747304
-0.04969793265655013
-1.3383142732681044
1.5487502242884625
-1.2496416190167023
1.4146248020303418
-0.6647746804904845
0.9915818656003896
-0.2097009234774415
0.2859056259445267
-0.012244583679307383
0.029107560100530516
-1.6316299343420284
2.031387465652868
-0.330904764553985
0.5039249404756736
