GIS
1
0.0
2
ENTAILMENT
NONENTAILMENT
1
11 0 1
11
BagOfLexesScoring_0
BagOfLemmasScoring_2
BagOfWordsScoring_0
BagOfWordsScoring_1
BagOfWordsScoring_2
BagOfWordsScoring_3
BagOfWordsScoring_4
BagOfWordsScoring_5
BagOfWordsScoring_6
BagOfLemmasScoring_0
BagOfLemmasScoring_1
0.6539002138299974
-0.7887028039807588
0.5126844399688991
-0.7251846526115074
1.4205289258186207
-1.9570665082766319
0.05754836723681927
-0.060455756972633036
-1.957967130553292
3.1434986250481702
-1.6907719762062767
2.073930368193092
-1.799083441168772
1.5104886548581957
-1.6453429213666475
1.8956312936873687
-1.5524705607902758
1.7501493405968884
0.39654589618380426
-0.5052423323237966
0.4996167080311463
-0.590364104055155
