GIS
1
0.0
2
ENTAILMENT
NONENTAILMENT
1
12 0 1
12
BagOfLemmasScoring_2
BagOfWordsScoring_0
BagOfWordsScoring_1
BagOfWordsScoring_2
BagOfWordsScoring_3
BagOfWordsScoring_4
BagOfWordsScoring_5
BagOfLexesPosScoring_0
BagOfWordsScoring_6
BagOfLexesPosScoring_1
BagOfLemmasScoring_0
BagOfLemmasScoring_1
0.6110247354371232
-0.8748347009690242
1.4646679490524155
-2.0294695662774576
-0.03303812486605106
0.05276925146227305
-1.9844734943317537
3.1797393015076074
-1.4037478362900624
1.7333343648819866
-1.479723584415688
1.2537076390227444
-1.3578416937528706
1.575427150826231
-0.11907705806588528
0.1517785908884247
-1.2615905169580617
1.4316264179973641
0.2540515667182246
-0.3265836091991239
0.5767029512364606
-0.7510413721830628
0.5082972601292379
-0.6009310122959907
