GIS
1
0.0
2
ENTAILMENT
NONENTAILMENT
1
11 0 1
11
BagOfLexesScoring_0
BagOfLemmasScoring_2
BagOfWordsScoring_0
BagOfWordsScoring_1
BagOfWordsScoring_2
BagOfWordsScoring_3
BagOfWordsScoring_4
BagOfWordsScoring_5
BagOfWordsScoring_6
BagOfLemmasScoring_0
BagOfLemmasScoring_1
0.18182216154600828
-0.2296411445269895
0.6228085794728939
-0.8906050393319583
1.4715490544657264
-2.037333576810006
-0.037283219356100364
0.05926835625618029
-2.0066127971726364
3.216447296989438
-1.432620239809091
1.7672750892885993
-1.5127614947019756
1.2791422816469973
-1.3868548380772168
1.6071593039829104
-1.2902190463375625
1.4623867144045424
0.5540154599126551
-0.7199008575065452
0.5252616944967634
-0.6209857184783363
