GIS
1
0.0
2
ENTAILMENT
NONENTAILMENT
1
11 0 1
11
BagOfLemmasScoring_2
BagOfWordsScoring_0
BagOfWordsScoring_1
BagOfWordsScoring_2
BagOfWordsScoring_3
BagOfWordsScoring_4
BagOfWordsScoring_5
BagOfLexesPosScoring_0
BagOfWordsScoring_6
BagOfLemmasScoring_0
BagOfLemmasScoring_1
0.6222698534046482
-0.8901955503900206
1.4796716020632315
-2.049170500527872
-0.01635280101476064
0.03205564838832629
-2.0276213430026333
3.2487458526651443
-1.4289102513976464
1.7627175547091305
-1.507774847744433
1.275039043831289
-1.3829336098508829
1.6027778756479534
0.16996799195344017
-0.2128232073080999
-1.2869590661415553
1.4588185947579073
0.5557308189367651
-0.722292435027321
0.5204340827553986
-0.615534991464598
