GIS
1
0.0
2
ENTAILMENT
NONENTAILMENT
1
38 0 1
38
BagOfLemmasScoring_2
BagOfDepsPosScoring_10
BagOfDepsPosScoring_11
BagOfLemmasScoring_0
BagOfLemmasScoring_1
BagOfDepsPosScoring_9
BagOfDepsPosScoring_7
BagOfDepsPosScoring_8
BagOfDepsPosScoring_5
BagOfDepsPosScoring_6
BagOfDepsPosScoring_3
BagOfDepsPosScoring_4
BagOfDepsPosScoring_1
BagOfDepsPosScoring_2
BagOfDepsPosScoring_0
TreeSkeletonScoring_2
TreeSkeletonScoring_1
BagOfWordsScoring_0
TreeSkeletonScoring_0
BagOfWordsScoring_1
TreeSkeletonScoring_12
TreeSkeletonScoring_6
BagOfWordsScoring_2
TreeSkeletonScoring_13
TreeSkeletonScoring_5
BagOfWordsScoring_3
TreeSkeletonScoring_14
TreeSkeletonScoring_4
BagOfWordsScoring_4
TreeSkeletonScoring_15
TreeSkeletonScoring_3
BagOfWordsScoring_5
BagOfWordsScoring_6
TreeSkeletonScoring_9
TreeSkeletonScoring_10
TreeSkeletonScoring_8
TreeSkeletonScoring_11
TreeSkeletonScoring_7
0.5459936392670331
-0.7689622744870006
-0.719508148667917
1.1103751303065277
-0.17364644435941146
0.3149429294036794
0.6143373842234358
-0.8038630886019665
0.02167363434089799
-0.021031071350392807
-0.2521546188448818
0.45286662427214847
-0.47728609605622363
0.5833571364465809
1.7794053158877292
-2.571141039137619
0.26006194299399
-0.36279086795143967
0.3026006954216946
-0.39331066394459707
-0.21866587452842182
0.3113893643774325
0.462988456084141
-0.5935965642755042
0.37145966501688793
-0.5710245015386373
1.521411395614014
-2.724650177500918
-0.14141184179892816
0.2596669799010966
-0.05005078385242309
0.07204537180361563
0.005594848746993544
-0.006362827247283977
1.2712832847559032
-1.7688082737671396
0.04801977309041963
-0.06714533727994368
0.2724916700514339
-0.34613131978704237
-0.9448878071985952
1.4342433297411978
-0.7276316202595234
1.3053598028926119
0.1985919128888925
-0.2783054267062281
0.7014308829676132
-1.2819416665581431
0.16901846954834127
-0.26130718740057457
-1.3383930733613527
1.6479330240983392
-0.23153252061171622
0.3738800788361118
0.20911148439925556
-0.364383275246951
-1.3013246841981099
1.1021840337331812
-1.6521516813779578
2.907547680567432
0.042217366405209844
-0.05795675432059274
-1.2052717948950147
1.3972382057205068
-1.1187681198439852
1.2689571309333911
-0.7145043597949448
1.0639662647102195
-0.2566632717365059
0.34984948216343215
-0.05865438136962799
0.0920261218039676
-1.8027867441148415
2.244954587427881
-0.37444645764409
0.5699099528699099
