GIS
1
0.0
2
ENTAILMENT
NONENTAILMENT
1
22 0 1
22
BagOfLemmasScoring_2
BagOfDepsScoring_0
BagOfDepsScoring_1
BagOfDepsScoring_2
BagOfLemmasScoring_0
BagOfLemmasScoring_1
BagOfDepsScoring_6
BagOfDepsScoring_5
BagOfDepsScoring_4
BagOfDepsScoring_3
BagOfDepsScoring_9
BagOfDepsScoring_8
BagOfWordsScoring_0
BagOfDepsScoring_7
BagOfWordsScoring_1
BagOfWordsScoring_2
BagOfWordsScoring_3
BagOfWordsScoring_4
BagOfWordsScoring_5
BagOfDepsScoring_10
BagOfWordsScoring_6
BagOfDepsScoring_11
0.7954383101471634
-1.1272174568835545
-0.0696983124734956
0.17342793250080557
0.9727736947956064
-1.5294452571005503
1.1748565114377267
-1.9996885987991875
0.620417540891845
-0.8068792438899246
0.602650238096555
-0.7282083137494094
-0.13503747678084238
0.18785630420582602
-0.4627606430337103
0.7406173481557564
0.38475123722800475
-0.49588130841824085
-0.6932734046090813
1.0608987166205734
0.7425035401254833
-1.3371603909164484
0.8693427617111206
-1.2973684062817612
1.6386264676254618
-2.277936314553527
-2.2537888567587876
2.797711531165652
0.49662502124970176
-0.633816166735211
-1.0265855844740557
1.663304692861025
-1.3978219717392026
1.7165804819154646
-1.3559973272314898
1.1432204334486817
-1.2558993159889984
1.4502223800677827
-0.8129182616456887
1.304584826923865
-1.1742968535022422
1.3264112953339942
-2.5212482415876707
4.434258688673716
