GIS
1
0.0
2
ENTAILMENT
NONENTAILMENT
1
22 0 1
22
BagOfLemmasScoring_2
BagOfDepsPosScoring_9
BagOfDepsPosScoring_7
BagOfDepsPosScoring_8
BagOfDepsPosScoring_5
BagOfDepsPosScoring_6
BagOfDepsPosScoring_10
BagOfDepsPosScoring_3
BagOfDepsPosScoring_11
BagOfDepsPosScoring_4
BagOfLemmasScoring_0
BagOfDepsPosScoring_1
BagOfDepsPosScoring_2
BagOfLemmasScoring_1
BagOfDepsPosScoring_0
BagOfWordsScoring_0
BagOfWordsScoring_1
BagOfWordsScoring_2
BagOfWordsScoring_3
BagOfWordsScoring_4
BagOfWordsScoring_5
BagOfWordsScoring_6
0.7945788628180627
-1.1299795999433693
0.30373846436562996
-0.49262559132241973
-1.7227288563760956
2.0792436450341523
2.1698952617784784
-3.149885541656536
-1.2797412419223415
1.8863808224355216
-0.22362850512261387
0.2955853281395125
-1.397627017911552
2.1617201123304493
-0.46570768059023077
0.6643362887949922
-1.8216894722942305
3.277434684044089
0.9520707855864208
-1.2219044989808787
0.9485731168013055
-1.240103725031035
0.8692003271344103
-1.331680688371791
1.5189675206410058
-2.7123226612803863
0.6102375944450728
-0.7366182869279111
0.01370360353427583
0.008893763323008416
1.460082542870982
-2.0263227257426184
0.025121692686134914
-0.028678354223735915
-1.7238201522173755
2.762976634578958
-1.4262406271794348
1.7503450531133675
-1.4149013210423642
1.1933336301240762
-1.299575768631422
1.499700675406376
-1.2138869483877723
1.370204847259976
