GIS
1
0.0
2
ENTAILMENT
NONENTAILMENT
1
11 0 1
11
BagOfLemmasScoring_2
BagOfWordsScoring_0
BagOfWordsScoring_1
BagOfWordsScoring_2
BagOfLexesScoringEN_0
BagOfLexesScoringEN_2
BagOfLexesScoringEN_1
BagOfLexesScoringEN_4
BagOfLemmasScoring_0
BagOfLexesScoringEN_3
BagOfLemmasScoring_1
0.4041915343552899
-0.6010492798572531
0.12747989231638046
-0.17260709154235948
-0.15626203663818947
0.21754767887941343
0.553980860442904
-0.8548683125566593
-0.01377751803611631
0.021652396921946364
0.003688513062704363
-0.0018533452929636433
0.003097408312161932
-0.0010659135475487639
0.004878186376211751
-0.003450992750296776
0.0022271757681233736
1.3282318492095852E-4
-0.01896979327658789
0.028623392700649678
-0.2781655110116881
0.37478684507097243
