GIS
1
0.0
2
ENTAILMENT
NONENTAILMENT
1
41 0 1
41
BagOfLemmasScoring_2
BagOfDepsPosScoring_10
BagOfDepsPosScoring_11
BagOfLemmasScoring_0
BagOfLemmasScoring_1
BagOfDepsPosScoring_9
BagOfDepsPosScoring_7
BagOfDepsPosScoring_8
BagOfLexesPosScoring_2
BagOfDepsPosScoring_5
BagOfDepsPosScoring_6
BagOfLexesPosScoring_0
BagOfDepsPosScoring_3
BagOfLexesPosScoring_1
BagOfDepsPosScoring_4
BagOfDepsPosScoring_1
BagOfDepsPosScoring_2
BagOfDepsPosScoring_0
TreeSkeletonScoring_2
TreeSkeletonScoring_1
TreeSkeletonScoring_0
BagOfWordsScoring_0
BagOfWordsScoring_1
TreeSkeletonScoring_12
TreeSkeletonScoring_6
BagOfWordsScoring_2
TreeSkeletonScoring_13
TreeSkeletonScoring_5
BagOfWordsScoring_3
TreeSkeletonScoring_14
TreeSkeletonScoring_4
BagOfWordsScoring_4
TreeSkeletonScoring_15
TreeSkeletonScoring_3
BagOfWordsScoring_5
BagOfWordsScoring_6
TreeSkeletonScoring_9
TreeSkeletonScoring_10
TreeSkeletonScoring_8
TreeSkeletonScoring_11
TreeSkeletonScoring_7
0.5134472099200924
-0.7263468901479488
-0.7124936092779828
1.0995663440939052
-0.14187026609925305
0.2582559436485293
0.47586690468551435
-0.6244904850977371
0.027309653170689445
-0.027940258971565095
-0.2523526435198453
0.4529616410464628
-0.4865625374122521
0.5944576434148501
1.6475442718630582
-2.3812261984011003
0.31876373627561316
-0.4211706759396941
0.2860444636323633
-0.3998956551358539
0.1821112262662526
-0.23673454068562472
-0.29910561876953295
0.37783933004825637
-0.26666905317733064
0.3799464230191207
0.23576694494575112
-0.3092111748949
0.44694021417378416
-0.5723953670648777
0.34204041297494514
-0.5258535803608754
1.4775658185654486
-2.6456529903969717
-0.11304647774399496
0.210153127840657
-0.05182940281436686
0.07448167141756039
0.007678044990660107
-0.009524462332945268
0.04637296362468941
-0.06489434135217237
1.1529371835306863
-1.6065023283454047
0.2749973938793344
-0.3495130084323661
-0.8124553442769463
1.232578781949644
-0.7635795407636049
1.3666024659254674
0.20525431073948788
-0.29114505080810255
0.68843126174689
-1.257943985338008
0.12019480968617335
-0.18505683433757156
-1.2845337077753347
1.5864038923275947
-0.2754629635349885
0.4428513205596124
0.24876223947899836
-0.43809828814714064
-1.2441805449330652
1.0570937961262343
-1.646850084967477
2.89833581368766
0.04255439811417873
-0.058506489693625485
-1.155836613267494
1.3438408731626894
-1.073242532123416
1.2203067481281717
-0.6726547828868453
1.002354160154079
-0.19745707775648216
0.2690690973441587
-0.10480488922193623
0.15430212168848412
-1.6450697700104475
2.0477511267726785
-0.3625897792416524
0.5520435458312986
