GIS
1
0.0
2
ENTAILMENT
NONENTAILMENT
1
38 0 1
38
BagOfLemmasScoring_2
BagOfDepsScoring_0
BagOfDepsScoring_1
BagOfDepsScoring_2
BagOfLemmasScoring_0
BagOfLemmasScoring_1
BagOfDepsScoring_6
BagOfDepsScoring_5
BagOfDepsScoring_4
BagOfDepsScoring_3
TreeSkeletonScoring_2
BagOfDepsScoring_9
TreeSkeletonScoring_1
BagOfWordsScoring_0
BagOfDepsScoring_8
TreeSkeletonScoring_0
BagOfWordsScoring_1
BagOfDepsScoring_7
TreeSkeletonScoring_12
TreeSkeletonScoring_6
BagOfWordsScoring_2
TreeSkeletonScoring_13
TreeSkeletonScoring_5
BagOfWordsScoring_3
TreeSkeletonScoring_14
TreeSkeletonScoring_4
BagOfWordsScoring_4
TreeSkeletonScoring_15
TreeSkeletonScoring_3
BagOfWordsScoring_5
BagOfWordsScoring_6
BagOfDepsScoring_10
TreeSkeletonScoring_9
BagOfDepsScoring_11
TreeSkeletonScoring_10
TreeSkeletonScoring_8
TreeSkeletonScoring_11
TreeSkeletonScoring_7
0.8255610521862076
-1.1760405828926916
-0.0024506536636339556
0.02513086194209953
0.2516273806460266
-0.39432142748035737
0.26743913239270056
-0.450468089980956
0.596164281334414
-0.780031876770892
0.22506068557447148
-0.2681413697704442
0.023656627079783908
-0.030883448994918544
-0.02901823631067076
0.06312720936790964
0.09749029213392749
-0.120851413401721
-0.3188751357548875
0.48574985600259774
-0.059690392402599254
0.08569665633450681
0.3354225600363638
-0.6029947201013499
0.012360869794409033
-0.0163224577933639
1.1863059222067325
-1.649943608375259
0.16669592803558925
-0.24754671605868642
0.04830719002156403
-0.06754112355675629
0.29467068611054
-0.3743175778509998
-1.1517486501655885
1.434852650253349
0.16669592803558925
-0.24754671605868642
0.26743913239270056
-0.450468089980956
0.18525295019637972
-0.2513978487495055
0.3354225600363638
-0.6029947201013499
0.2516273806460266
-0.39432142748035737
-1.3090932016059587
1.613554970760691
-0.36264292876794846
0.5805284375977547
-0.0024506536636339556
0.02513086194209953
-1.2543264123615843
1.0634893084770132
-1.0491470987764524
1.838597154372199
0.04358388911183792
-0.05987368444284023
-1.1684358102094283
1.356162624199233
-1.090817559865259
1.2385908126881684
-0.36264292876794846
0.5805284375977547
-0.02901823631067076
0.06312720936790964
-1.0491470987764524
1.838597154372199
0.023656627079783908
-0.030883448994918544
0.09749029213392749
-0.120851413401721
-1.1517486501655885
1.434852650253349
-0.3188751357548875
0.48574985600259774
