GIS
1
0.0
2
NONENTAILMENT
ENTAILMENT
1
11 0 1
11
BagOfLemmasScoring_2
BagOfWordsScoring_0
BagOfWordsScoring_1
BagOfWordsScoring_2
BagOfWordsScoring_3
BagOfWordsScoring_4
BagOfWordsScoring_5
BagOfLexesPosScoring_0
BagOfWordsScoring_6
BagOfLemmasScoring_0
BagOfLemmasScoring_1
-0.9849201033615608
0.6889519790922605
-2.1155135704953794
1.5312063903442668
0.13917035214832624
-0.09934537264085873
3.2120187008000967
-2.001207241265189
1.7356901597493457
-1.4085013400065076
1.2421345121670768
-1.469852253738747
1.5672444754018393
-1.3537921854438293
0.2059959471229915
-0.1578812245468491
1.4219584129008846
-1.2552663331229204
-1.0293138885927946
0.7916156646868262
-0.6091171706612484
0.5148225936399659
