GIS
1
0.0
2
NONENTAILMENT
ENTAILMENT
1
52 0 1
52
BagOfLemmasScoring_2
BagOfDepsPosScoring_10
BagOfDepsPosScoring_11
BagOfLemmasScoring_0
BagOfLemmasScoring_1
BagOfDepsScoring_6
BagOfDepsScoring_5
BagOfDepsScoring_4
BagOfDepsScoring_3
TreeSkeletonScoring_2
BagOfDepsScoring_9
TreeSkeletonScoring_1
BagOfDepsScoring_8
TreeSkeletonScoring_0
BagOfDepsScoring_7
TreeSkeletonScoring_6
TreeSkeletonScoring_5
TreeSkeletonScoring_4
TreeSkeletonScoring_3
BagOfDepsScoring_10
BagOfDepsScoring_11
TreeSkeletonScoring_9
TreeSkeletonScoring_8
TreeSkeletonScoring_7
BagOfDepsScoring_0
BagOfDepsScoring_1
BagOfDepsScoring_2
BagOfDepsPosScoring_9
BagOfDepsPosScoring_7
BagOfDepsPosScoring_8
BagOfDepsPosScoring_5
BagOfDepsPosScoring_6
BagOfLexesPosScoring_0
BagOfDepsPosScoring_3
BagOfLexesPosScoring_1
BagOfDepsPosScoring_4
BagOfDepsPosScoring_1
BagOfDepsPosScoring_2
BagOfDepsPosScoring_0
BagOfWordsScoring_0
BagOfWordsScoring_1
TreeSkeletonScoring_12
BagOfWordsScoring_2
TreeSkeletonScoring_13
BagOfWordsScoring_3
TreeSkeletonScoring_14
BagOfWordsScoring_4
TreeSkeletonScoring_15
BagOfWordsScoring_5
BagOfWordsScoring_6
TreeSkeletonScoring_10
TreeSkeletonScoring_11
-0.8185719687047717
0.5791572155665224
0.9141418860101364
-0.5927366775548638
-0.025452186334312142
0.01677696347076717
-0.632459928402628
0.48245857018679383
-0.04471397783726167
0.04018630351777636
0.08907494269509078
-0.06503848190658507
0.5122523480429426
-0.3417533579746783
-0.018627946942427816
0.01984588287916877
0.3066833049499247
-0.20125447681612438
0.07124585562983293
-0.04961826584942727
-0.7485122974961518
0.41075242709268134
-0.0105379718160664
0.0082676170602606
0.5499336990138219
-0.3621462156675761
-0.06553162634309974
0.0467456496749851
1.4906911326148526
-1.1977354133262108
0.5256388085268113
-0.29117316681618344
-0.27844656914763033
0.17779990045048719
-0.12445935339543739
0.07571266094997597
-0.051982576413858575
0.037818922831883484
0.3340455714911599
-0.20819584849910683
1.8729691439605383
-1.0674019668013162
0.5122523480429426
-0.3417533579746783
-0.018627946942427816
0.01984588287916877
0.3066833049499247
-0.20125447681612438
-0.12445935339543739
0.07571266094997597
-0.27844656914763033
0.17779990045048719
0.5256388085268113
-0.29117316681618344
0.4952032527806746
-0.278567472547655
0.3808871065650848
-0.3101146228732241
-2.336287009762174
1.619322039154531
-0.4037702671642577
0.2858188069750399
-0.2879664879406327
0.22150410837679985
-0.4060243272390334
0.31057494923643514
0.29857900302479823
-0.20947913373007357
0.1548830680018234
-0.12084154359332576
-0.44720884587725973
0.3482826455193375
-0.5130852164630234
0.3331402451971157
-2.5412443054115395
1.4195280528097436
0.24606061553244166
-0.13571048100991892
-1.5565320841149533
1.1181176506959096
-0.4407947454779861
0.34624531496668015
0.5499336990138219
-0.3621462156675761
-0.6419214739804913
0.4313392853019451
-0.7485122974961518
0.41075242709268134
1.5947363463924193
-1.2928825012188074
0.3340455714911599
-0.20819584849910683
1.0618637186210906
-1.2522057133172069
1.8729691439605383
-1.0674019668013162
1.3479690236156399
-1.1610865237641155
1.2183180646030596
-1.0731104193439052
0.08907494269509078
-0.06503848190658507
1.4906911326148526
-1.1977354133262108
