GIS
1
0.0
2
ENTAILMENT
NONENTAILMENT
1
11 0 1
11
BagOfLemmasScoring_2
BagOfWordsScoring_0
BagOfWordsScoring_1
BagOfWordsScoring_2
BagOfWordsScoring_3
BagOfLexesScoringEN_0
BagOfWordsScoring_4
BagOfWordsScoring_5
BagOfWordsScoring_6
BagOfLemmasScoring_0
BagOfLemmasScoring_1
-0.102661299503212
0.20441136739737173
0.9738598179560694
-1.3395478132578547
0.25434401687753927
-0.3303779307047972
-0.46166660995729897
0.8417807319438465
-1.6155394059564416
1.9996130890681032
0.8104551047838259
-1.0770753824747397
-1.731282501162938
1.438326518998575
-1.4713967117862716
1.7417282644200986
-1.4063665089395072
1.6644229677120619
0.32224328484682396
-0.4225526406243611
0.3293417795796191
-0.41078716768751217
