GIS
1
0.0
2
NONENTAILMENT
ENTAILMENT
1
53 0 1
53
BagOfLemmasScoring_2
BagOfDepsPosScoring_10
BagOfDepsPosScoring_11
BagOfLemmasScoring_0
BagOfLemmasScoring_1
BagOfDepsScoring_6
BagOfDepsScoring_5
BagOfDepsScoring_4
BagOfDepsScoring_3
TreeSkeletonScoring_2
BagOfDepsScoring_9
TreeSkeletonScoring_1
BagOfDepsScoring_8
TreeSkeletonScoring_0
BagOfDepsScoring_7
TreeSkeletonScoring_6
TreeSkeletonScoring_5
TreeSkeletonScoring_4
TreeSkeletonScoring_3
BagOfDepsScoring_10
BagOfDepsScoring_11
TreeSkeletonScoring_9
TreeSkeletonScoring_8
TreeSkeletonScoring_7
BagOfDepsScoring_0
BagOfDepsScoring_1
BagOfDepsScoring_2
BagOfDepsPosScoring_9
BagOfDepsPosScoring_7
BagOfDepsPosScoring_8
BagOfLexesPosScoring_2
BagOfDepsPosScoring_5
BagOfDepsPosScoring_6
BagOfLexesPosScoring_0
BagOfDepsPosScoring_3
BagOfLexesPosScoring_1
BagOfDepsPosScoring_4
BagOfDepsPosScoring_1
BagOfDepsPosScoring_2
BagOfDepsPosScoring_0
BagOfWordsScoring_0
BagOfWordsScoring_1
TreeSkeletonScoring_12
BagOfWordsScoring_2
TreeSkeletonScoring_13
BagOfWordsScoring_3
TreeSkeletonScoring_14
BagOfWordsScoring_4
TreeSkeletonScoring_15
BagOfWordsScoring_5
BagOfWordsScoring_6
TreeSkeletonScoring_10
TreeSkeletonScoring_11
-0.7805019619054606
0.5516904637658594
0.9035136985928747
-0.585840139971834
-0.04532045061398442
0.027961583174356836
-0.5545922937951527
0.4226553274186292
-0.03391114225939151
0.03133754652300087
0.07722814032790193
-0.056343242637558674
0.5165968137555181
-0.3448495302733366
-0.013945324565979899
0.016359933853995073
0.29989057480787923
-0.19676368685872683
0.07036946947792953
-0.04901405195455158
-0.7496591565723043
0.41131414474030037
-0.010015591427272952
0.007891669478701926
0.5084439535648088
-0.3347179521272976
-0.06518885376280677
0.04647436769500795
1.4444302264653273
-1.1606878444874118
0.548289773734573
-0.30431955628910884
-0.2606288766903057
0.16640986277402725
-0.1330298882162014
0.08027369533664677
-0.05103138134298517
0.03712835481181791
0.3325053176642524
-0.20731490799353183
1.869643068419816
-1.0654949257140778
0.5165968137555181
-0.3448495302733366
-0.013945324565979899
0.016359933853995073
0.29989057480787923
-0.19676368685872683
-0.1330298882162014
0.08027369533664677
-0.2606288766903057
0.16640986277402725
0.548289773734573
-0.30431955628910884
0.5012864880603481
-0.28212149678731746
0.39277564482064453
-0.31997158273400883
-2.275289943714109
1.5768074421400564
-0.39611995285589724
0.2997819692143914
-0.4133258743637589
0.2925248685010651
-0.23325259774362125
0.17945856770174645
-0.2570895356344483
0.19680918291856284
0.3173836246412631
-0.22258920828977824
0.23937700457113914
-0.18730378536546782
-0.45242654655269876
0.35237755412570154
-0.5084784615998013
0.33013638904448267
-2.5322044554136105
1.4146386192927967
0.2457054816784072
-0.1355677828716126
-1.494952312600201
1.0732512999684813
-0.4413941683558837
0.34670181389961124
0.5084439535648088
-0.3347179521272976
-0.6296552315893373
0.4227750987785774
-0.7496591565723043
0.41131414474030037
1.5826970405096352
-1.2817111585430583
0.3325053176642524
-0.20731490799353183
1.0520431257278333
-1.2391994271956457
1.869643068419816
-1.0654949257140778
1.3388854601946323
-1.152027996744712
1.2102761516846132
-1.0651053592188644
0.07722814032790193
-0.056343242637558674
1.4444302264653273
-1.1606878444874118
