GIS
1
0.0
2
ENTAILMENT
NONENTAILMENT
1
50 0 1
50
BagOfLemmasScoring_2
BagOfDepsPosScoring_10
BagOfDepsPosScoring_11
BagOfLemmasScoring_0
BagOfLemmasScoring_1
BagOfDepsScoring_6
BagOfDepsScoring_5
BagOfDepsScoring_4
BagOfDepsScoring_3
TreeSkeletonScoring_2
BagOfDepsScoring_9
TreeSkeletonScoring_1
BagOfDepsScoring_8
TreeSkeletonScoring_0
BagOfDepsScoring_7
TreeSkeletonScoring_6
TreeSkeletonScoring_5
TreeSkeletonScoring_4
TreeSkeletonScoring_3
BagOfDepsScoring_10
BagOfDepsScoring_11
TreeSkeletonScoring_9
TreeSkeletonScoring_8
TreeSkeletonScoring_7
BagOfDepsScoring_0
BagOfDepsScoring_1
BagOfDepsScoring_2
BagOfDepsPosScoring_9
BagOfDepsPosScoring_7
BagOfDepsPosScoring_8
BagOfDepsPosScoring_5
BagOfDepsPosScoring_6
BagOfDepsPosScoring_3
BagOfDepsPosScoring_4
BagOfDepsPosScoring_1
BagOfDepsPosScoring_2
BagOfDepsPosScoring_0
BagOfWordsScoring_0
BagOfWordsScoring_1
BagOfWordsScoring_2
TreeSkeletonScoring_12
BagOfWordsScoring_3
TreeSkeletonScoring_13
TreeSkeletonScoring_14
BagOfWordsScoring_4
TreeSkeletonScoring_15
BagOfWordsScoring_5
BagOfWordsScoring_6
TreeSkeletonScoring_10
TreeSkeletonScoring_11
0.5972581265485948
-0.8420108695777928
-0.6023109298900647
0.9288654608903993
0.0020359002251073284
7.718985816096451E-4
0.5742436886498717
-0.751400445742839
0.04179956533735343
-0.04648975905906774
-0.08612924379957644
0.11780181371639846
-0.3676234926852993
0.5499782597994449
0.04027352382840777
-0.046256202225819075
-0.20859418218412656
0.317768296154518
-0.04718456504193115
0.06784034282848729
0.4230140417805327
-0.7713157349983402
0.005806643316312221
-0.006873937357678669
-0.4018611790947081
0.6102074290765077
0.048361079018103575
-0.06780467751742843
-1.2665606094425335
1.57662827680364
-0.26312574478836037
0.47702198754782665
0.1976575998838475
-0.30958269310387404
0.059582799664933385
-0.09445347174633126
0.038218406765748364
-0.05250406455673422
-0.18875264426337568
0.30333718141597427
-1.074160389669774
1.8845730284625526
-0.3676234926852993
0.5499782597994449
0.04027352382840777
-0.046256202225819075
-0.20859418218412656
0.317768296154518
0.059582799664933385
-0.09445347174633126
0.1976575998838475
-0.30958269310387404
-0.26312574478836037
0.47702198754782665
-0.2788241814442253
0.49560898925149155
-0.28573354501620285
0.35168161685008825
1.7124710452813423
-2.470016870899629
0.2742561706513222
-0.38719468824463216
0.30566266878635845
-0.39720409387256334
-0.18893193785498347
0.26920106356681617
0.35321586218335926
-0.45371289358632616
0.334646106287875
-0.5153703446814204
1.4433539607592498
-2.5842983568621567
-0.15392934956641843
0.277691631106129
1.1934914226572104
-1.659937908957073
0.345969311167332
-0.4402588874981449
0.4210463148371786
-0.6243135473514979
-0.4018611790947081
0.6102074290765077
-1.3026199134154686
1.6042315330659114
0.4230140417805327
-0.7713157349983402
-0.18875264426337568
0.30333718141597427
-1.2617248072067373
1.0685513710497911
-1.074160389669774
1.8845730284625526
-1.1678952673427454
1.353996301656507
-1.0791967180208364
1.2237727252025115
-0.08612924379957644
0.11780181371639846
-1.2665606094425335
1.57662827680364
