GIS
1
0.0
2
NONENTAILMENT
ENTAILMENT
1
51 0 1
51
BagOfLemmasScoring_2
BagOfDepsPosScoring_10
BagOfDepsPosScoring_11
BagOfLemmasScoring_0
BagOfLemmasScoring_1
BagOfDepsScoring_6
BagOfDepsScoring_5
BagOfDepsScoring_4
BagOfDepsScoring_3
TreeSkeletonScoring_2
BagOfDepsScoring_9
TreeSkeletonScoring_1
BagOfDepsScoring_8
TreeSkeletonScoring_0
BagOfDepsScoring_7
TreeSkeletonScoring_6
TreeSkeletonScoring_5
TreeSkeletonScoring_4
TreeSkeletonScoring_3
BagOfDepsScoring_10
BagOfDepsScoring_11
TreeSkeletonScoring_9
TreeSkeletonScoring_8
TreeSkeletonScoring_7
BagOfDepsScoring_0
BagOfDepsScoring_1
BagOfDepsScoring_2
BagOfDepsPosScoring_9
BagOfDepsPosScoring_7
BagOfDepsPosScoring_8
BagOfDepsPosScoring_5
BagOfDepsPosScoring_6
BagOfLexesPosScoring_0
BagOfDepsPosScoring_3
BagOfDepsPosScoring_4
BagOfDepsPosScoring_1
BagOfDepsPosScoring_2
BagOfDepsPosScoring_0
BagOfWordsScoring_0
BagOfWordsScoring_1
BagOfWordsScoring_2
TreeSkeletonScoring_12
TreeSkeletonScoring_13
BagOfWordsScoring_3
TreeSkeletonScoring_14
BagOfWordsScoring_4
TreeSkeletonScoring_15
BagOfWordsScoring_5
BagOfWordsScoring_6
TreeSkeletonScoring_10
TreeSkeletonScoring_11
-0.8525923958024317
0.603933946693855
0.9180727341658121
-0.5952996782093618
-0.005991237772572547
0.005836594956837515
-0.7412616056533976
0.5660355030561499
-0.05091508373069852
0.04529320071512559
0.10827310371004231
-0.07913582457180399
0.5385704217921352
-0.3597472110997886
-0.041784871039198083
0.03696526399449999
0.31407387945371507
-0.20614418553009675
0.06830335112047166
-0.047525488552596785
-0.7633342153743397
0.4187482815201603
-0.006961840675300088
0.005853717289507677
0.5971285578373463
-0.3932943433554315
-0.06821804066854613
0.048645008577032724
1.5591243233857108
-1.2525823659596513
0.48601093785274324
-0.2683156686610401
-0.29134569875170907
0.1861033669479339
-0.09947041024651691
0.06228436384181165
-0.053437548855678745
0.038870176563271595
0.3102926350173477
-0.1931569369579938
1.8729272853209622
-1.0674123392739903
0.5385704217921352
-0.3597472110997886
-0.041784871039198083
0.03696526399449999
0.31407387945371507
-0.20614418553009675
-0.09947041024651691
0.06228436384181165
-0.29134569875170907
0.1861033669479339
0.48601093785274324
-0.2683156686610401
0.48516039525723215
-0.27276218627617077
0.3620007367866253
-0.29442248677212696
-2.427100949596652
1.6826747424422828
-0.3909907385429014
0.276874868837757
-0.3848329881693387
0.2960362242818777
-0.004158011619698329
0.004411850377311948
0.27417981293648436
-0.19240371731088307
-0.4507489068856316
0.35092717267073437
-0.5042694862621396
0.3274436440087627
-2.550902746255319
1.4247692105601093
0.26804576587661977
-0.1483303104598852
-1.642175474861206
1.1804204851270552
-0.44002019024751315
0.3456815765026902
-0.6368796972011239
0.42883346059159666
0.5971285578373463
-0.3932943433554315
-0.7633342153743397
0.4187482815201603
1.5989838300035097
-1.2978745441133035
0.3102926350173477
-0.1931569369579938
1.0645235236139075
-1.2567555480948778
1.8729272853209622
-1.0674123392739903
1.3494331441979837
-1.1636352689700946
1.2205705263306295
-1.0760739492426525
0.10827310371004231
-0.07913582457180399
1.5591243233857108
-1.2525823659596513
