GIS
1
0.0
2
NONENTAILMENT
ENTAILMENT
1
54 0 1
54
BagOfLemmasScoring_2
BagOfDepsPosScoring_10
BagOfDepsPosScoring_11
BagOfLemmasScoring_0
BagOfLemmasScoring_1
BagOfDepsScoring_6
BagOfDepsScoring_5
BagOfDepsScoring_4
BagOfDepsScoring_3
TreeSkeletonScoring_2
BagOfDepsScoring_9
TreeSkeletonScoring_1
BagOfDepsScoring_8
TreeSkeletonScoring_0
BagOfDepsScoring_7
TreeSkeletonScoring_6
TreeSkeletonScoring_5
TreeSkeletonScoring_4
TreeSkeletonScoring_3
BagOfDepsScoring_10
BagOfDepsScoring_11
TreeSkeletonScoring_9
TreeSkeletonScoring_8
TreeSkeletonScoring_7
BagOfDepsScoring_0
BagOfDepsScoring_1
BagOfDepsScoring_2
BagOfDepsPosScoring_9
BagOfDepsPosScoring_7
BagOfDepsPosScoring_8
BagOfLexesPosScoring_2
BagOfDepsPosScoring_5
BagOfLexesPosScoring_3
BagOfDepsPosScoring_6
BagOfLexesPosScoring_0
BagOfDepsPosScoring_3
BagOfLexesPosScoring_1
BagOfDepsPosScoring_4
BagOfDepsPosScoring_1
BagOfDepsPosScoring_2
BagOfDepsPosScoring_0
BagOfWordsScoring_0
BagOfWordsScoring_1
TreeSkeletonScoring_12
BagOfWordsScoring_2
TreeSkeletonScoring_13
BagOfWordsScoring_3
TreeSkeletonScoring_14
BagOfWordsScoring_4
TreeSkeletonScoring_15
BagOfWordsScoring_5
BagOfWordsScoring_6
TreeSkeletonScoring_10
TreeSkeletonScoring_11
-0.7987683944308418
0.5632715218879834
0.8901428835641919
-0.5771682068281089
-0.05652000788110265
0.034260569591040506
-0.5546166542876594
0.4223076855816265
-0.036144261070679126
0.03321038808115055
0.07042295064863427
-0.051351620648878785
0.5146739526886048
-0.3436143823286405
-0.007884573732118589
0.011860703838104699
0.2947060966250643
-0.19334186676370466
0.06975820122863463
-0.048596307093544636
-0.745194978517589
0.40887771129069367
-0.009947028165839911
0.007827041456941203
0.5009315073882076
-0.32970997177008965
-0.06582768989289568
0.046892113279162796
1.435071819672121
-1.1532685312407536
0.5554925584607301
-0.3085678954097058
-0.24376122351595614
0.15568092674929282
-0.1334026802149454
0.08042514638611767
-0.05098965849883936
0.03708718217987072
0.33481575777051764
-0.20882407152475438
1.85331146421732
-1.0561485957592245
0.5146739526886048
-0.3436143823286405
-0.007884573732118589
0.011860703838104699
0.2947060966250643
-0.19334186676370466
-0.1334026802149454
0.08042514638611767
-0.24376122351595614
0.15568092674929282
0.5554925584607301
-0.3085678954097058
0.4921133121610831
-0.2769057217757524
0.3981925978735424
-0.3244556894031986
-2.245787250480426
1.556309351538509
0.23698294004071274
-0.18548751948456027
-0.4162047072742772
0.2945733114505525
-0.368151616986656
0.278280690224371
-0.23022271074420458
0.17714084170179095
-0.009841925463307671
0.009199185243783194
0.31602460606515537
-0.22150029838676918
-0.2444061905327221
0.18678810704995089
-0.44497647395344975
0.3467169166494305
-0.5002315350896165
0.32477670289368227
-2.5064272706607715
1.400326224625314
0.24016392805040027
-0.13242880855048328
-1.4858388082676708
1.0663289470940862
-0.43662914583477974
0.34297043064844146
0.5009315073882076
-0.32970997177008965
-0.6456085445618052
0.4323859900407802
-0.745194978517589
0.40887771129069367
1.5717857170944058
-1.2719881758253617
0.33481575777051764
-0.20882407152475438
1.0439756891161207
-1.2287548215414152
1.85331146421732
-1.0561485957592245
1.32903126588912
-1.1427289096474043
1.2015255136134557
-1.0567954348812396
0.07042295064863427
-0.051351620648878785
1.435071819672121
-1.1532685312407536
