GIS
1
0.0
2
NONENTAILMENT
ENTAILMENT
1
11 0 1
11
BagOfLexesScoring_0
BagOfLemmasScoring_2
BagOfWordsScoring_0
BagOfWordsScoring_1
BagOfWordsScoring_2
BagOfWordsScoring_3
BagOfWordsScoring_4
BagOfWordsScoring_5
BagOfWordsScoring_6
BagOfLemmasScoring_0
BagOfLemmasScoring_1
-1.3265116906621883
1.0237328873040346
-0.5313357789800242
0.3775209840149673
-1.9432971818275087
1.4041676346901077
-0.27263404026707466
0.22183817907408016
3.264323822829319
-2.038404513588608
1.9281303628591833
-1.5644994444113378
1.4007181873696735
-1.6596425165553796
1.7490991819722124
-1.511186958331879
1.6014354297986917
-1.4147300195251202
0.16116807344269807
-0.11227550252966412
-0.6680115209212575
0.5643075842483765
