GIS
1
0.0
2
ENTAILMENT
NONENTAILMENT
1
12 0 1
12
BagOfDepsScoring_6
BagOfDepsScoring_5
BagOfDepsScoring_4
BagOfDepsScoring_3
BagOfDepsScoring_9
BagOfDepsScoring_8
BagOfDepsScoring_7
BagOfDepsScoring_0
BagOfDepsScoring_1
BagOfDepsScoring_2
BagOfDepsScoring_10
BagOfDepsScoring_11
0.0057745819103679165
-0.002899078621629654
-2.489708448204266
3.682360010594611
2.0178483165754875
-2.7035435415529894
-0.24464379302585418
0.3836061956486315
1.9062032638518562
-3.4843324033208063
6.735721884402071
-9.9740894052933
-5.098791934703774
6.335999507334952
-0.7857739080928298
1.5228897428706945
0.8104863248542805
-1.2729257165554972
-1.3820136113014276
2.4704509381966693
0.09307260478323955
-0.1302220870093602
-2.673259448304686
4.6822491668532145
