GIS
1
0.0
2
ENTAILMENT
NONENTAILMENT
1
12 0 1
12
BagOfLexesScoring_0
BagOfLemmasScoring_2
BagOfLexesScoring_1
BagOfWordsScoring_0
BagOfWordsScoring_1
BagOfWordsScoring_2
BagOfWordsScoring_3
BagOfWordsScoring_4
BagOfWordsScoring_5
BagOfWordsScoring_6
BagOfLemmasScoring_0
BagOfLemmasScoring_1
-0.12871457778492684
0.16366041641365003
0.6211229414346244
-0.8892603802455649
0.2567687641468612
-0.329955428061524
1.4617168931818763
-2.0255482808341934
-0.06109882805566807
0.08923972777818703
-1.9663057703037228
3.151821563284321
-1.4069042864913144
1.7373155053375042
-1.4835659463566564
1.256935840441614
-1.360639530482097
1.5786259265751266
-1.2636016554968508
1.4338845456387113
0.586467030722853
-0.7636723950907474
0.5144449894599569
-0.6081666914319593
