GIS
1
0.0
2
NONENTAILMENT
ENTAILMENT
1
40 0 1
40
BagOfLemmasScoring_2
BagOfDepsPosScoring_10
BagOfDepsPosScoring_11
BagOfLemmasScoring_0
BagOfLemmasScoring_1
BagOfDepsPosScoring_9
BagOfDepsPosScoring_7
BagOfDepsPosScoring_8
BagOfDepsPosScoring_5
BagOfDepsPosScoring_6
BagOfLexesPosScoring_0
BagOfDepsPosScoring_3
BagOfLexesPosScoring_1
BagOfDepsPosScoring_4
BagOfDepsPosScoring_1
BagOfDepsPosScoring_2
BagOfDepsPosScoring_0
TreeSkeletonScoring_2
TreeSkeletonScoring_1
TreeSkeletonScoring_0
BagOfWordsScoring_0
BagOfWordsScoring_1
TreeSkeletonScoring_12
TreeSkeletonScoring_6
BagOfWordsScoring_2
TreeSkeletonScoring_13
TreeSkeletonScoring_5
BagOfWordsScoring_3
TreeSkeletonScoring_14
TreeSkeletonScoring_4
BagOfWordsScoring_4
TreeSkeletonScoring_15
TreeSkeletonScoring_3
BagOfWordsScoring_5
BagOfWordsScoring_6
TreeSkeletonScoring_9
TreeSkeletonScoring_10
TreeSkeletonScoring_8
TreeSkeletonScoring_11
TreeSkeletonScoring_7
-0.7472109785786104
0.5278003552273475
1.1077636286561452
-0.7178594219715573
0.2840369515962751
-0.15642786255985952
-0.6408087463806409
0.4882787762711883
-0.020684790442674357
0.021494013695446897
0.45071896752751067
-0.2511290747949947
0.6144607333277812
-0.5030820990176672
-2.417205173797883
1.6723755783963399
-0.4036263290664769
0.2886398403969543
-0.2553831984059682
0.19645935836728187
-0.025918484360789616
0.021921141063034704
0.3543316945909824
-0.2485417892663078
-0.2953766362490628
0.22600694532072335
-0.5836339165489052
0.45555565744936544
-0.5553634557623888
0.3611406383552111
-2.6723842095898593
1.4923027285728612
0.2069959821149194
-0.11127971458704725
0.07621066346221271
-0.05303308381286304
-0.010332202994004055
0.008241176551529191
-0.064183522859702
0.045881306793382856
-1.6362144507158742
1.1741435543898324
-0.3563898790235287
0.28046006238783905
1.26524590466167
-0.8339671973593474
1.3849168585881086
-0.7739182524315362
-0.31487475980043644
0.22040320037396577
-1.249876490956476
0.6840577671790244
-0.19996095991100823
0.12956251440787164
1.6390919929611756
-1.3277831800917441
0.43841500362847624
-0.2726832956465798
-0.4130997275319109
0.23525131870557922
1.0995353205641236
-1.2950006021297704
2.9228992534488456
-1.6609188474960226
-0.05889513165052255
0.042851152961462045
1.3938204461933827
-1.1993691743113712
1.268119391088044
-1.115836146566224
1.0098576576257756
-0.6778953205832077
0.26713894373899005
-0.19604099677157932
0.14050287951782917
-0.09466224490284608
2.083809330630575
-1.674099940496733
0.5464943826842293
-0.35896155525115186
