GIS
1
0.0
2
ENTAILMENT
NONENTAILMENT
1
30 0 1
30
BagOfLemmasScoring_2
BagOfDepsScoring_0
BagOfDepsScoring_1
BagOfDepsScoring_2
BagOfDepsPosScoring_10
BagOfDepsPosScoring_11
BagOfLemmasScoring_0
BagOfLemmasScoring_1
BagOfDepsPosScoring_9
BagOfDepsPosScoring_7
BagOfDepsPosScoring_8
BagOfDepsPosScoring_5
BagOfDepsPosScoring_6
BagOfDepsPosScoring_3
BagOfDepsPosScoring_4
BagOfDepsPosScoring_1
BagOfDepsPosScoring_2
BagOfDepsScoring_6
BagOfDepsPosScoring_0
BagOfDepsScoring_5
BagOfDepsScoring_4
BagOfDepsScoring_3
BagOfDepsScoring_9
BagOfWordsScoring_0
BagOfDepsScoring_8
BagOfWordsScoring_1
BagOfDepsScoring_7
BagOfWordsScoring_2
BagOfDepsScoring_10
BagOfDepsScoring_11
0.13338184182407525
-0.19915182838906997
0.17660955117329957
-0.34422218473531563
0.06706393061471283
-0.11921978908635475
0.059317263651250104
-0.11397179297113039
-0.0029121094356026242
0.017045011397094075
0.04411696028792679
-0.07533194676574646
-0.01423422744445057
0.021540264887814686
-0.13242648839808865
0.1795191500090614
0.11079185016323984
-0.19507402740141433
-0.13032306282775916
0.18694271003585236
0.10272643323535208
-0.16448361111702398
-0.06529537464032391
0.13456392241867457
-0.031209119621992992
0.047188501759936434
0.0017940326571499173
0.0034879964441707646
-0.16672512355006774
0.26534670717116704
-0.01567782689065884
0.04115719262667187
0.0494895810200815
-0.0886235825606709
0.028141216535601303
-0.0376493119393622
0.09613874411965946
-0.1683858499807409
-0.058206035231152885
0.12519675923387152
-0.12444075757900956
0.20535069593402522
0.03541084342785874
-0.05112343910818047
0.1805426880216446
-0.34799718924979745
0.03241093709172731
-0.042564956027856066
0.16727501813003803
-0.2868793347176663
-0.0861140741431107
0.12086805593616598
-0.05560770091433476
0.08549211479693082
0.18387313417845705
-0.28697141401916226
0.06630514669334016
-0.11647648935701668
0.06033274921100854
-0.1149341738612211
