GIS
1
0.0
2
ENTAILMENT
NONENTAILMENT
1
12 0 1
12
BagOfLemmasScoring_2
BagOfLexesScoringEN_5
BagOfWordsScoring_0
BagOfWordsScoring_1
BagOfWordsScoring_2
BagOfLexesScoringEN_0
BagOfLexesScoringEN_2
BagOfLexesScoringEN_1
BagOfLexesScoringEN_4
BagOfLemmasScoring_0
BagOfLexesScoringEN_3
BagOfLemmasScoring_1
0.37598222740835385
-0.5586668594376276
-0.015552494130657119
0.023695777725150514
0.11911922625521049
-0.1613595542978548
-0.13558505753971903
0.1887186406231833
0.5150499196291106
-0.7938253747052212
-0.003856851258827702
0.007997957704019471
-0.01083665557273517
0.01736452353041465
0.004522588913503176
-0.0033135734357011377
0.0062096211795590744
-0.005576370468258392
0.00381187203877476
-0.0023352975814777497
0.005070417397244015
-0.004044621707149349
-0.2480837923958755
0.33407481101475706
