GIS
1
0.0
2
ENTAILMENT
NONENTAILMENT
1
11 0 1
11
BagOfLexesScoring_0
BagOfLemmasScoring_2
BagOfWordsScoring_0
BagOfWordsScoring_1
BagOfWordsScoring_2
BagOfWordsScoring_3
BagOfWordsScoring_4
BagOfWordsScoring_5
BagOfWordsScoring_6
BagOfLemmasScoring_0
BagOfLemmasScoring_1
1.080271273143852
-1.4066236939045074
0.4113582573336173
-0.5810760445761767
1.4187006109425255
-1.9639268342063396
0.21288671029753936
-0.2611884328922411
-2.0852307266824117
3.3375774621048815
-1.5517846292748076
1.9128670096360894
-1.6414120763312157
1.385716963176167
-1.5006149860394469
1.7372432756297254
-1.4051307925984422
1.590859954690059
-0.19530541358478176
0.27071125113203476
0.5765992735901059
-0.6829258101551507
