GIS
1
0.0
2
ENTAILMENT
NONENTAILMENT
1
10 0 1
10
BagOfLemmasScoring_2
BagOfWordsScoring_0
BagOfWordsScoring_1
BagOfWordsScoring_2
BagOfWordsScoring_3
BagOfWordsScoring_4
BagOfWordsScoring_5
BagOfWordsScoring_6
BagOfLemmasScoring_0
BagOfLemmasScoring_1
0.6504919681770914
-0.9255756640495288
1.5128989147622645
-2.0838115310509338
-0.040984530054792065
0.06597733168509792
-2.041861660978175
3.2796181149356545
-1.4366027336115674
1.7663098624134947
-1.5116277926817683
1.2721304960955098
-1.3871038530028739
1.6013485092677642
-1.289988844217525
1.457329851986503
0.6943922779986184
-0.8962392367424934
0.5323717402084516
-0.6304747235510467
