GIS
1
0.0
2
NONENTAILMENT
ENTAILMENT
1
35 0 1
35
BagOfLemmasScoring_2
BagOfDepsScoring_0
BagOfDepsScoring_1
BagOfDepsScoring_2
BagOfDepsPosScoring_10
BagOfDepsPosScoring_11
BagOfLemmasScoring_0
BagOfLemmasScoring_1
BagOfDepsPosScoring_9
BagOfDepsPosScoring_7
BagOfDepsPosScoring_8
BagOfDepsPosScoring_5
BagOfDepsPosScoring_6
BagOfDepsPosScoring_3
BagOfLexesPosScoring_0
BagOfDepsPosScoring_4
BagOfDepsPosScoring_1
BagOfDepsPosScoring_2
BagOfDepsScoring_6
BagOfDepsPosScoring_0
BagOfDepsScoring_5
BagOfDepsScoring_4
BagOfDepsScoring_3
BagOfDepsScoring_9
BagOfWordsScoring_0
BagOfDepsScoring_8
BagOfWordsScoring_1
BagOfDepsScoring_7
BagOfWordsScoring_2
BagOfWordsScoring_3
BagOfWordsScoring_4
BagOfWordsScoring_5
BagOfWordsScoring_6
BagOfDepsScoring_10
BagOfDepsScoring_11
-0.26316044436056785
0.20558481875068874
-0.20464693984074342
0.12540022467923848
-0.8608588664766013
0.5473519757061985
1.3915501647499273
-0.7733206512755286
1.741954987311246
-1.1294173445707472
0.5582861706172899
-0.3087884231561629
-0.821831120192698
0.6291547604205324
-0.107395659804364
0.09085269551154361
0.5966689844989317
-0.3324627375778052
0.5322229538293645
-0.43581623429787436
-3.7701982006520023
2.6059193887250496
-0.015786918143124738
0.023895524760845853
-0.42898808412337225
0.3301486064026462
0.23376650018801384
-0.16233901503939163
0.04139014004516147
-0.031040008891610415
-0.9957872829324242
0.7711713000797421
-1.0685870982667838
0.6942824888318317
-4.465923729226433
2.491960905817821
0.531300731661228
-0.3893477944020191
0.2996278913907339
-0.1620779820995812
1.7539424775901171
-1.1778082824244371
-0.12032774610470219
0.09912555100061729
0.7532551402610108
-0.4940207110312264
-1.6472318566810116
0.8996300131172134
-2.2509441999299216
1.6171744256098735
1.884316463241542
-1.2425372095372642
-0.7852248518436084
0.6147495531375636
2.8047960014219284
-2.2585882553628793
0.26837867512811003
-0.14237067358203936
1.6782946313552647
-1.3659913792651035
1.1292444526149432
-1.3369374975453525
1.417020592611287
-1.2264809403737875
1.277122071444526
-1.1300982411311413
0.2737600485769129
-0.16760710845551272
3.9654459446775214
-2.254153125556661
