GIS
1
0.0
2
NONENTAILMENT
ENTAILMENT
1
52 0 1
52
BagOfLemmasScoring_2
BagOfDepsPosScoring_10
BagOfDepsPosScoring_11
BagOfLemmasScoring_0
BagOfLemmasScoring_1
BagOfDepsScoring_6
BagOfDepsScoring_5
BagOfDepsScoring_4
BagOfDepsScoring_3
TreeSkeletonScoring_2
BagOfDepsScoring_9
TreeSkeletonScoring_1
BagOfDepsScoring_8
TreeSkeletonScoring_0
BagOfDepsScoring_7
TreeSkeletonScoring_6
TreeSkeletonScoring_5
TreeSkeletonScoring_4
TreeSkeletonScoring_3
BagOfDepsScoring_10
BagOfDepsScoring_11
TreeSkeletonScoring_9
TreeSkeletonScoring_8
TreeSkeletonScoring_7
BagOfDepsScoring_0
BagOfDepsScoring_1
BagOfDepsScoring_2
BagOfDepsPosScoring_9
BagOfDepsPosScoring_7
BagOfDepsPosScoring_8
BagOfDepsPosScoring_5
BagOfDepsPosScoring_6
BagOfLexesPosScoring_0
BagOfDepsPosScoring_3
BagOfLexesPosScoring_1
BagOfDepsPosScoring_4
BagOfDepsPosScoring_1
BagOfDepsPosScoring_2
BagOfDepsPosScoring_0
BagOfWordsScoring_0
BagOfWordsScoring_1
TreeSkeletonScoring_12
BagOfWordsScoring_2
TreeSkeletonScoring_13
BagOfWordsScoring_3
TreeSkeletonScoring_14
BagOfWordsScoring_4
TreeSkeletonScoring_15
BagOfWordsScoring_5
BagOfWordsScoring_6
TreeSkeletonScoring_10
TreeSkeletonScoring_11
-0.7745537836498503
0.5485971944010112
0.9118488674344164
-0.5912548017696477
-0.03498328664817839
0.022154406258211953
-0.5910556096783561
0.4508652798194988
-0.03315228202418229
0.030700113566137704
0.08868491051562552
-0.06475695872401836
0.5370116132149263
-0.3587994657042197
-0.03072727356153447
0.02877048068660908
0.30513999626600247
-0.20023408294357703
0.06872775163708467
-0.04784056331923782
-0.7630091629933692
0.4185135804612941
-0.00787799852940336
0.006455156791945988
0.5274057925626159
-0.3472686024153241
-0.06622111056584265
0.04721895389277748
1.4764513030130353
-1.186329313364031
0.5278074712239519
-0.292478419826245
-0.2724373858607838
0.1739637188179625
-0.12001989905457802
0.0732976714457026
-0.05150243987028763
0.037476577493514365
0.3163517854403693
-0.1970927395507058
1.8809048314754209
-1.0719789648094908
0.5370116132149263
-0.3587994657042197
-0.03072727356153447
0.02877048068660908
0.30513999626600247
-0.20023408294357703
-0.12001989905457802
0.0732976714457026
-0.2724373858607838
0.1739637188179625
0.5278074712239519
-0.292478419826245
0.5035820345035711
-0.28340348013641303
0.3817785155063256
-0.3108504266890458
-2.3297107385855127
1.6147100572303332
-0.4089784474708974
0.2894599555093479
-0.2739539423516077
0.21074323684193738
0.17627651821153825
-0.1376485780256086
0.3101349152543693
-0.21759801341574025
-0.5170769429751403
0.3913389001840389
-0.46248520318345887
0.3600466466255414
-0.5076540052189817
0.32961625225029834
-2.5569922810037196
1.4283931580535731
0.26259848437296013
-0.1452524044630472
-1.5308352806666612
1.0995021508282932
-0.44543659004918623
0.34988588289774025
0.5274057925626159
-0.3472686024153241
-0.6101463456485925
0.4108346222742079
-0.7630091629933692
0.4185135804612941
1.5877404629685894
-1.286927111616289
0.3163517854403693
-0.1970927395507058
1.0553358872453138
-1.2441566469870389
1.8809048314754209
-1.0719789648094908
1.3426842192705413
-1.1562707743742104
1.2142303887112949
-1.0693263127925643
0.08868491051562552
-0.06475695872401836
1.4764513030130353
-1.186329313364031
