GIS
1
0.0
2
ENTAILMENT
NONENTAILMENT
1
12 0 1
12
BagOfLemmasScoring_2
BagOfWordsScoring_0
BagOfWordsScoring_1
BagOfWordsScoring_2
BagOfWordsScoring_3
BagOfLexesScoringEN_0
BagOfWordsScoring_4
BagOfWordsScoring_5
BagOfWordsScoring_6
BagOfLexesScoringEN_1
BagOfLemmasScoring_0
BagOfLemmasScoring_1
-0.20391457894974857
0.36189746333260303
0.9130010741553325
-1.2577463677882532
0.33980386120729
-0.4457523893894871
-0.4367988790005266
0.7974057849696651
-1.6956869760944155
2.0996320058576505
0.45973071800822274
-0.5948527035203556
-1.8213669020601468
1.514411582410884
-1.5505249290468155
1.8361378687414351
-1.4854457732477317
1.758344912210903
0.6536474361979208
-0.8691693131953283
0.15056743628764047
-0.19332475265447926
0.3438822325768476
-0.4299411728659595
