GIS
1
0.0
2
NONENTAILMENT
ENTAILMENT
1
52 0 1
52
BagOfLemmasScoring_2
BagOfDepsPosScoring_10
BagOfDepsPosScoring_11
BagOfLemmasScoring_0
BagOfLemmasScoring_1
BagOfDepsScoring_6
BagOfDepsScoring_5
BagOfDepsScoring_4
BagOfDepsScoring_3
TreeSkeletonScoring_2
BagOfDepsScoring_9
TreeSkeletonScoring_1
BagOfDepsScoring_8
TreeSkeletonScoring_0
BagOfDepsScoring_7
TreeSkeletonScoring_6
TreeSkeletonScoring_5
TreeSkeletonScoring_4
TreeSkeletonScoring_3
BagOfDepsScoring_10
BagOfDepsScoring_11
TreeSkeletonScoring_9
TreeSkeletonScoring_8
TreeSkeletonScoring_7
BagOfDepsScoring_0
BagOfDepsScoring_1
BagOfDepsScoring_2
BagOfDepsPosScoring_9
BagOfDepsPosScoring_7
BagOfDepsPosScoring_8
BagOfDepsPosScoring_5
BagOfDepsPosScoring_6
BagOfLexesPosScoring_0
BagOfDepsPosScoring_3
BagOfLexesPosScoring_1
BagOfDepsPosScoring_4
BagOfDepsPosScoring_1
BagOfDepsPosScoring_2
BagOfDepsPosScoring_0
BagOfWordsScoring_0
BagOfWordsScoring_1
TreeSkeletonScoring_12
BagOfWordsScoring_2
TreeSkeletonScoring_13
BagOfWordsScoring_3
TreeSkeletonScoring_14
BagOfWordsScoring_4
TreeSkeletonScoring_15
BagOfWordsScoring_5
BagOfWordsScoring_6
TreeSkeletonScoring_10
TreeSkeletonScoring_11
-0.7681271834257639
0.5429891542933448
0.9132015218303786
-0.5921405764352377
-0.04893546786931617
0.03000570800729932
-0.5543577256064938
0.4224509379828705
-0.035230220799157205
0.032553583830308555
0.07876580149775274
-0.05746881132874382
0.5302230435855814
-0.3542620277577211
-0.028436622375521633
0.02706289608885491
0.30581664532331887
-0.20067707303418347
0.06987819394267776
-0.04865519613386095
-0.7634036786381098
0.4186645148636163
-0.009069938031152996
0.007257246596334009
0.5110435184278269
-0.3364055416220211
-0.06515444119197362
0.046447924037038665
1.462387843061423
-1.1752016415939384
0.5445817833697113
-0.3022495323906521
-0.2618762581889106
0.16716074216029989
-0.12573341154918774
0.07632311616379253
-0.0525883193561342
0.03825348226473233
0.32493930839417856
-0.20257849000555958
1.8915166693767402
-1.078106255928597
0.5302230435855814
-0.3542620277577211
-0.028436622375521633
0.02706289608885491
0.30581664532331887
-0.20067707303418347
-0.12573341154918774
0.07632311616379253
-0.2618762581889106
0.16716074216029989
0.5445817833697113
-0.3022495323906521
0.4994727362060418
-0.2811508083837038
0.39443203528077686
-0.32126483501849457
-2.307966984951341
1.5994056372984369
-0.4205251750612098
0.29758901049898984
-0.2453028914644372
0.18875326636311732
-0.021484675426651206
0.018380057304180988
0.3254734297892284
-0.22825166235502276
-0.3917124695971252
0.2964162086666199
-0.46878586076763884
0.3649913449254175
-0.5107293304698649
0.33159148107902675
-2.5706561289613488
1.4360695932306795
0.25022879205548954
-0.13821686848009185
-1.5071005312818255
1.0818198386201414
-0.45332745823149684
0.356110808349899
0.5110435184278269
-0.3364055416220211
-0.6120826359595262
0.4114092817996169
-0.7634036786381098
0.4186645148636163
1.5965284050559048
-1.2930382217356515
0.32493930839417856
-0.20257849000555958
1.0664469190268933
-1.2562564802346479
1.8915166693767402
-1.078106255928597
1.3531117574585334
-1.1643113369649591
1.226373545948621
-1.0794054017931496
0.07876580149775274
-0.05746881132874382
1.462387843061423
-1.1752016415939384
