GIS
1
0.0
2
ENTAILMENT
NONENTAILMENT
1
22 0 1
22
BagOfLemmasScoring_2
BagOfDepsScoring_0
BagOfDepsScoring_1
BagOfDepsScoring_2
BagOfLemmasScoring_0
BagOfLemmasScoring_1
BagOfDepsScoring_6
BagOfDepsScoring_5
BagOfDepsScoring_4
BagOfDepsScoring_3
BagOfDepsScoring_9
BagOfDepsScoring_8
BagOfWordsScoring_0
BagOfDepsScoring_7
BagOfWordsScoring_1
BagOfWordsScoring_2
BagOfWordsScoring_3
BagOfWordsScoring_4
BagOfWordsScoring_5
BagOfDepsScoring_10
BagOfWordsScoring_6
BagOfDepsScoring_11
0.6541497719766816
-0.9926619638974192
-0.13914385766618315
0.3600654553393709
0.8832378726600684
-1.7621174809082425
0.44236098252088746
-0.9949518056851782
0.9444184384845078
-1.2605693930494415
0.10099264405608621
-0.1250741129633831
-0.40372238607890504
0.6057910390284993
-1.3372252250702152
2.5771773977819126
-2.1798897074105335
3.4076246182805376
0.5013209685331034
-0.8141479204142305
0.14429259136558728
-0.2517359585100886
1.787944356896953
-3.2585075121319327
1.0021351279110662
-1.384774041060549
0.7713287820215129
-1.102059023358752
-0.34324814674074206
0.46439417208691325
-0.3437000510235126
0.62427072401134
-1.468629793380755
1.8084528559498982
-1.538288008216381
1.2752826022499704
-1.329479904037662
1.5666551562537203
0.7170801590980401
-1.4066593161038135
-1.246934792765753
1.4720661649127655
-1.7985298803356229
4.49672728180036
