GIS
1
0.0
2
ENTAILMENT
NONENTAILMENT
1
50 0 1
50
BagOfLemmasScoring_2
BagOfDepsPosScoring_10
BagOfDepsPosScoring_11
BagOfLemmasScoring_0
BagOfLemmasScoring_1
BagOfDepsScoring_6
BagOfDepsScoring_5
BagOfDepsScoring_4
BagOfDepsScoring_3
TreeSkeletonScoring_2
BagOfDepsScoring_9
TreeSkeletonScoring_1
BagOfDepsScoring_8
TreeSkeletonScoring_0
BagOfDepsScoring_7
TreeSkeletonScoring_6
TreeSkeletonScoring_5
TreeSkeletonScoring_4
TreeSkeletonScoring_3
BagOfDepsScoring_10
BagOfDepsScoring_11
TreeSkeletonScoring_9
TreeSkeletonScoring_8
TreeSkeletonScoring_7
BagOfDepsScoring_0
BagOfDepsScoring_1
BagOfDepsScoring_2
BagOfDepsPosScoring_9
BagOfDepsPosScoring_7
BagOfDepsPosScoring_8
BagOfDepsPosScoring_5
BagOfDepsPosScoring_6
BagOfDepsPosScoring_3
BagOfDepsPosScoring_4
BagOfDepsPosScoring_1
BagOfDepsPosScoring_2
BagOfDepsPosScoring_0
BagOfWordsScoring_0
BagOfWordsScoring_1
BagOfWordsScoring_2
TreeSkeletonScoring_12
BagOfWordsScoring_3
TreeSkeletonScoring_13
TreeSkeletonScoring_14
BagOfWordsScoring_4
TreeSkeletonScoring_15
BagOfWordsScoring_5
BagOfWordsScoring_6
TreeSkeletonScoring_10
TreeSkeletonScoring_11
0.8901140040663085
-1.3686908639170143
0.044756706697227436
-0.07352799341321904
-0.1343763354975486
0.32519296520729896
0.7149415615042184
-0.9547095866257056
-0.09053292228129321
0.12035411603580472
-0.012300532811582237
0.02101411133175461
-0.5359846278442829
1.0246273986969145
-0.6529407186349865
1.0230549392315431
0.24647549844096894
-0.4026598189619769
-0.11552668727673382
0.16374774303233622
0.06826225373169864
-0.12487539531147628
0.08583021000667192
-0.12604099421542964
0.5600125278959025
-1.0132591278049912
0.030193626490869176
-0.04143776277246733
-0.057042599149411836
0.08522935118925828
-0.16485300772063902
0.4310597773746721
0.33036493749976353
-0.6626752563884838
0.044802376644163464
-0.07557957330484513
0.020639353015680956
-0.027393237710713024
0.22369447388833247
-0.4402219059434828
-0.6341326521045962
1.582167572138687
-0.5359846278442829
1.0246273986969145
-0.6529407186349865
1.0230549392315431
0.24647549844096894
-0.4026598189619769
0.044802376644163464
-0.07557957330484513
0.33036493749976353
-0.6626752563884838
-0.16485300772063902
0.4310597773746721
-0.058396218128139374
0.12517859138982937
-0.32922661746818366
0.45544798044043544
0.7465845503112362
-1.2590376784546642
-0.17051090991115125
0.3259459675927651
-0.08606418254317247
0.12185025919824415
0.07265276685651242
-0.11337869757051929
-0.8800590670029006
1.3316466878989695
-0.03365002360540542
0.07224987364537558
0.4567042060946462
-1.0347275172536983
-0.20497422067866206
0.4113094289225662
0.6571689026740368
-0.9088016863357157
-0.24325952951160024
0.32866638651932706
0.45630290505659526
-0.723442458573601
0.5600125278959025
-1.0132591278049912
-1.2781592745370813
1.5818257849946278
0.06826225373169864
-0.12487539531147628
0.22369447388833247
-0.4402219059434828
-1.3128149571026193
1.097347025520601
-0.6341326521045962
1.582167572138687
-1.1484550818003465
1.3606215061587368
-1.048708398377445
1.2426977264636752
-0.012300532811582237
0.02101411133175461
-0.057042599149411836
0.08522935118925828
