GIS
1
0.0
2
NONENTAILMENT
ENTAILMENT
1
12 0 1
12
BagOfLemmasScoring_2
BagOfWordsScoring_0
BagOfWordsScoring_1
BagOfWordsScoring_2
BagOfWordsScoring_3
BagOfWordsScoring_4
BagOfWordsScoring_5
BagOfLexesPosScoring_0
BagOfWordsScoring_6
BagOfLexesPosScoring_1
BagOfLemmasScoring_0
BagOfLemmasScoring_1
-1.1047419851072595
0.7673121181985145
-2.225942319458272
1.6022902536435992
0.06357720767963461
-0.04184968769747566
3.5881515737723957
-2.245451992439198
1.801440874894932
-1.4591773732456306
1.2989337417511062
-1.5327667295597196
1.6310375721882884
-1.4055011826954558
0.722261386324647
-0.5351546940252064
1.4870036773202595
-1.31040794259645
-0.6216925427784796
0.4770191667422545
-0.8966876393348863
0.6856958594613767
-0.6951406685426953
0.5857482097753041
