GIS
1
0.0
2
NONENTAILMENT
ENTAILMENT
1
51 0 1
51
BagOfLemmasScoring_2
BagOfDepsPosScoring_10
BagOfDepsPosScoring_11
BagOfLemmasScoring_0
BagOfLemmasScoring_1
BagOfDepsScoring_6
BagOfDepsScoring_5
BagOfDepsScoring_4
BagOfDepsScoring_3
TreeSkeletonScoring_2
BagOfDepsScoring_9
TreeSkeletonScoring_1
BagOfDepsScoring_8
TreeSkeletonScoring_0
BagOfDepsScoring_7
TreeSkeletonScoring_6
TreeSkeletonScoring_5
TreeSkeletonScoring_4
TreeSkeletonScoring_3
BagOfDepsScoring_10
BagOfDepsScoring_11
TreeSkeletonScoring_9
TreeSkeletonScoring_8
TreeSkeletonScoring_7
BagOfDepsScoring_0
BagOfDepsScoring_1
BagOfDepsScoring_2
BagOfDepsPosScoring_9
BagOfDepsPosScoring_7
BagOfDepsPosScoring_8
BagOfDepsPosScoring_5
BagOfDepsPosScoring_6
BagOfLexesPosScoring_0
BagOfDepsPosScoring_3
BagOfDepsPosScoring_4
BagOfDepsPosScoring_1
BagOfDepsPosScoring_2
BagOfDepsPosScoring_0
BagOfWordsScoring_0
BagOfWordsScoring_1
BagOfWordsScoring_2
TreeSkeletonScoring_12
TreeSkeletonScoring_13
BagOfWordsScoring_3
TreeSkeletonScoring_14
BagOfWordsScoring_4
TreeSkeletonScoring_15
BagOfWordsScoring_5
BagOfWordsScoring_6
TreeSkeletonScoring_10
TreeSkeletonScoring_11
-0.7967003992147093
0.5640636819044919
0.9217416516455189
-0.5976846663824565
-0.03184273647465105
0.02039180919155249
-0.631694076365372
0.4819632316186821
-0.04242509611528952
0.03844147754009616
0.09251658341034814
-0.06756360547910895
0.538098939535023
-0.3595661696645241
-0.036099987480868984
0.03274698626723654
0.310362233932461
-0.2036891669985575
0.06940334552252803
-0.048304358820107904
-0.7675052712687205
0.4209164608013301
-0.008413743939871736
0.006832002135961699
0.5540867520128774
-0.36485479435642826
-0.0664947650929984
0.04741386535172492
1.5104126055843081
-1.2136447822246181
0.5179637270692431
-0.2868239227967062
-0.280365457130616
0.17898907442849551
-0.112437044155672
0.06921298103519183
-0.052690872811018544
0.038338784420864615
0.3180816929720287
-0.1981662682717569
1.8902192053043678
-1.077390440522842
0.538098939535023
-0.3595661696645241
-0.036099987480868984
0.03274698626723654
0.310362233932461
-0.2036891669985575
-0.112437044155672
0.06921298103519183
-0.280365457130616
0.17898907442849551
0.5179637270692431
-0.2868239227967062
0.49897341585344435
-0.28080549774800195
0.37595081998904273
-0.30591662505127776
-2.375866357146586
1.6467426788570345
-0.41052791540511746
0.29056913740748697
-0.3063397456870104
0.23567371002006593
-0.2424003300492316
0.18519418115436986
0.303669199006131
-0.21305182263504108
-0.46368959326485887
0.36098332870328903
-0.5146364512763058
0.33414524528133466
-2.5846676532046757
1.4437577407408322
0.2609341726095832
-0.14432357816874877
-1.5688424036822943
1.126905391923565
-0.4494434580438901
0.3530961311443357
-0.6133452825698827
0.4129900731903299
0.5540867520128774
-0.36485479435642826
-0.7675052712687205
0.4209164608013301
1.59760275327612
-1.2953724603272576
0.3180816929720287
-0.1981662682717569
1.0659450587260058
-1.2569814622764925
1.8902192053043678
-1.077390440522842
1.3517001127030086
-1.1643423566600328
1.223692135505989
-1.077964234648154
0.09251658341034814
-0.06756360547910895
1.5104126055843081
-1.2136447822246181
