GIS
1
0.0
2
ENTAILMENT
NONENTAILMENT
1
26 0 1
26
BagOfLemmasScoring_2
BagOfLemmasScoring_0
BagOfLemmasScoring_1
TreeSkeletonScoring_2
TreeSkeletonScoring_1
TreeSkeletonScoring_0
BagOfWordsScoring_0
BagOfWordsScoring_1
BagOfWordsScoring_2
TreeSkeletonScoring_6
TreeSkeletonScoring_12
BagOfWordsScoring_3
TreeSkeletonScoring_5
TreeSkeletonScoring_13
TreeSkeletonScoring_14
BagOfWordsScoring_4
TreeSkeletonScoring_4
TreeSkeletonScoring_15
BagOfWordsScoring_5
TreeSkeletonScoring_3
BagOfWordsScoring_6
TreeSkeletonScoring_9
TreeSkeletonScoring_8
TreeSkeletonScoring_10
TreeSkeletonScoring_7
TreeSkeletonScoring_11
0.04861994931984403
-0.07108239483016546
0.015413059321208136
-0.019725908360078873
-0.0232900644952712
0.03183831790140304
-0.0022525276650745057
0.0041563565166974755
0.014460311288278807
-0.02006720318068627
0.013041834601708555
-0.017102036356118643
0.027503994388342817
-0.0365937776412642
-0.011264926257206764
0.016452407878797273
0.06237792452006597
-0.09501995049362176
0.09254911145871059
-0.1883957376382205
0.07615811287447453
-0.1252575224475462
-0.05440935337961763
0.06985536466700645
0.07274850351990464
-0.129146842733383
0.11419148629880418
-0.20642551896501218
0.07145121123279699
-0.12548575676879248
-0.16342605510203467
0.15117174825714022
0.11534696966186683
-0.21054462537198368
0.09294557574874975
-0.18720614515110762
-0.060550461555033984
0.07458800567857174
-0.007711364278069845
0.011626434219059989
-0.07445924910491164
0.09311789913652971
0.04257480448030302
-0.06947810608454565
0.003714997453429364
-0.0026225091587581077
0.03747688120442381
-0.05186152841012216
0.05706457253815157
-0.08621090749563484
0.005524202873974661
-0.00617646203276888
