GIS
1
0.0
2
ENTAILMENT
NONENTAILMENT
1
11 0 1
11
BagOfLexesScoring_0
BagOfLemmasScoring_2
BagOfLexesScoring_1
BagOfLexesScoring_4
BagOfLexesScoring_2
BagOfWordsScoring_0
BagOfLexesScoring_3
BagOfWordsScoring_1
BagOfWordsScoring_2
BagOfLemmasScoring_0
BagOfLemmasScoring_1
0.011562060298683141
-0.01250180252471152
0.28302090177009265
-0.39664812734471644
-0.03326363991468224
0.046639327875650026
0.0028127567923036997
-8.825977738227068E-4
0.011562060298683141
-0.01250180252471152
0.20643800791304728
-0.28065993407133316
0.011562060298683141
-0.01250180252471152
-0.19012308949471604
0.252592011426542
0.45888519748062223
-0.6760376023182117
-0.0071356987287475
0.012256156500962206
-0.3623883994039169
0.46234111821526086
