GIS
1
0.0
2
NONENTAILMENT
ENTAILMENT
1
11 0 1
11
BagOfLemmasScoring_2
BagOfWordsScoring_0
BagOfWordsScoring_1
BagOfWordsScoring_2
BagOfWordsScoring_3
BagOfWordsScoring_4
BagOfWordsScoring_5
BagOfLexesPosScoring_0
BagOfWordsScoring_6
BagOfLemmasScoring_0
BagOfLemmasScoring_1
-1.0178810303725416
0.7097661960412682
-2.155539812235545
1.5558829471163853
0.10706152368420764
-0.07487844024976265
3.3281728521870586
-2.077684614823447
1.7597221815207207
-1.426944544479838
1.2649349791770013
-1.4959600883146722
1.5920077685218683
-1.3739149742764543
0.14655227775661372
-0.10026600451282648
1.4482998760948598
-1.2778828764838903
-0.9589909661506959
0.735331109164708
-0.636198051571078
0.5373399111352635
