GIS
1
0.0
2
ENTAILMENT
NONENTAILMENT
1
16 0 1
16
TreeSkeletonScoring_2
TreeSkeletonScoring_1
TreeSkeletonScoring_0
TreeSkeletonScoring_12
TreeSkeletonScoring_6
TreeSkeletonScoring_13
TreeSkeletonScoring_5
TreeSkeletonScoring_14
TreeSkeletonScoring_4
TreeSkeletonScoring_15
TreeSkeletonScoring_3
TreeSkeletonScoring_9
TreeSkeletonScoring_8
TreeSkeletonScoring_10
TreeSkeletonScoring_7
TreeSkeletonScoring_11
0.02589473871707226
-0.03503500291878176
0.03529308697695677
-0.04956045488474478
0.04803591297144174
-0.06719843134888814
4.2978866887413085
-6.320331347618145
-1.5026810114369022
2.6657407074756
1.0662463601195562
-1.9334194788350232
0.3295560768976352
-0.5184681109376057
0.2710007838717789
-0.42425062684961373
0.15183828881389527
-0.23313923728673797
-1.5624224226001777
2.7358499764230513
-0.0462543561159854
0.06656292484360926
-0.5449931684388873
0.8256888325611391
0.0921542183982735
-0.09674040735426442
-0.30022316201880006
0.411556578003291
-0.26819264623794986
0.41135972720633057
-3.289383869699116
4.1232056902362135
