GIS
1
0.0
2
NONENTAILMENT
ENTAILMENT
1
50 0 1
50
BagOfLemmasScoring_2
BagOfDepsPosScoring_10
BagOfDepsPosScoring_11
BagOfLemmasScoring_0
BagOfLemmasScoring_1
BagOfDepsScoring_6
BagOfDepsScoring_5
BagOfDepsScoring_4
BagOfDepsScoring_3
TreeSkeletonScoring_2
BagOfDepsScoring_9
TreeSkeletonScoring_1
BagOfDepsScoring_8
TreeSkeletonScoring_0
BagOfDepsScoring_7
TreeSkeletonScoring_6
TreeSkeletonScoring_5
TreeSkeletonScoring_4
TreeSkeletonScoring_3
BagOfDepsScoring_10
BagOfDepsScoring_11
TreeSkeletonScoring_9
TreeSkeletonScoring_8
TreeSkeletonScoring_7
BagOfDepsScoring_0
BagOfDepsScoring_1
BagOfDepsScoring_2
BagOfDepsPosScoring_9
BagOfDepsPosScoring_7
BagOfDepsPosScoring_8
BagOfDepsPosScoring_5
BagOfDepsPosScoring_6
BagOfDepsPosScoring_3
BagOfDepsPosScoring_4
BagOfDepsPosScoring_1
BagOfDepsPosScoring_2
BagOfDepsPosScoring_0
BagOfWordsScoring_0
BagOfWordsScoring_1
BagOfWordsScoring_2
TreeSkeletonScoring_12
BagOfWordsScoring_3
TreeSkeletonScoring_13
TreeSkeletonScoring_14
BagOfWordsScoring_4
TreeSkeletonScoring_15
BagOfWordsScoring_5
BagOfWordsScoring_6
TreeSkeletonScoring_10
TreeSkeletonScoring_11
-1.3148402401401735
0.8641768142333057
0.1618797962865882
-0.09166038074488393
0.406086786518317
-0.18955113619655037
-0.952417647194299
0.7176905858168691
0.08057361807307367
-0.060089598153662584
-0.023454872541405374
0.01823983038215527
0.7302006332840097
-0.4063195268775099
0.8293697946693398
-0.5595651750186816
-0.2322433051990534
0.15195739269892028
0.22647564342727505
-0.15754804989926657
-0.4692784123656475
0.2510835613325554
0.010998420068495508
-0.006591713930635435
-0.8044591027441041
0.4741601780322237
-0.051014431964998455
0.036929687766371753
0.24219075590871192
-0.173633105859462
0.07979242408293555
-0.028574336879184092
-0.5179583301734942
0.2820206734390811
0.08498685225473997
-0.0357381340639552
-0.27828668369064113
0.1929242404754349
-0.286030362856174
0.15933887864831733
0.7380839668425642
-0.32798540227458806
0.7302006332840097
-0.4063195268775099
0.8293697946693398
-0.5595651750186816
-0.2322433051990534
0.15195739269892028
0.08498685225473997
-0.0357381340639552
-0.5179583301734942
0.2820206734390811
0.07979242408293555
-0.028574336879184092
0.6224136331462657
-0.34820237296080525
0.38958670978271925
-0.28835653875305467
-1.3667703207678543
0.8321650039472658
0.6219544034827656
-0.35944469948357805
0.03507352034506634
-0.0248420650979833
-0.1623668822839748
0.11033187538712116
1.049101031333273
-0.731253610611662
-0.3896653836920553
0.23241591420373398
-0.396792175664757
0.1943023670276925
0.68853399501246
-0.3785994026164018
-0.9379699418329985
0.6840199278967571
0.29164955623628686
-0.21767691633036837
-0.823578215957836
0.5241779941051241
-0.8044591027441041
0.4741601780322237
1.662039914282755
-1.343405080232037
-0.4692784123656475
0.2510835613325554
-0.286030362856174
0.15933887864831733
1.144669826925001
-1.3725177672876956
0.7380839668425642
-0.32798540227458806
1.4094300918071028
-1.1912003020482698
1.2830979160772455
-1.0852988133149117
-0.023454872541405374
0.01823983038215527
0.24219075590871192
-0.173633105859462
