GIS
1
0.0
2
ENTAILMENT
NONENTAILMENT
1
12 0 1
12
BagOfLexesScoring_0
BagOfLemmasScoring_2
BagOfLexesScoring_1
BagOfWordsScoring_0
BagOfWordsScoring_1
BagOfWordsScoring_2
BagOfWordsScoring_3
BagOfWordsScoring_4
BagOfWordsScoring_5
BagOfWordsScoring_6
BagOfLemmasScoring_0
BagOfLemmasScoring_1
0.5693734143440107
-0.6868471020943976
0.3143726356483394
-0.4396069916257285
0.9409379118561907
-1.2241652059725248
1.3471104829861922
-1.8637090900083264
0.2655651229468219
-0.3290286286706981
-1.9983847980861749
3.19886676250314
-1.7590783346107282
2.161175763518429
-1.8756143253055986
1.5780507534137564
-1.7118195356105408
1.975591754247306
-1.6195073658652765
1.8280203222973421
-0.3354623161095277
0.45591466671241576
0.5426068707800691
-0.6423651430622136
