GIS
1
0.0
2
NONENTAILMENT
ENTAILMENT
1
52 0 1
52
BagOfLemmasScoring_2
BagOfDepsPosScoring_10
BagOfDepsPosScoring_11
BagOfLemmasScoring_0
BagOfLemmasScoring_1
BagOfDepsScoring_6
BagOfDepsScoring_5
BagOfDepsScoring_4
BagOfDepsScoring_3
TreeSkeletonScoring_2
BagOfDepsScoring_9
TreeSkeletonScoring_1
BagOfDepsScoring_8
TreeSkeletonScoring_0
BagOfDepsScoring_7
TreeSkeletonScoring_6
TreeSkeletonScoring_5
TreeSkeletonScoring_4
TreeSkeletonScoring_3
BagOfDepsScoring_10
BagOfDepsScoring_11
TreeSkeletonScoring_9
TreeSkeletonScoring_8
TreeSkeletonScoring_7
BagOfDepsScoring_0
BagOfDepsScoring_1
BagOfDepsScoring_2
BagOfDepsPosScoring_9
BagOfDepsPosScoring_7
BagOfDepsPosScoring_8
BagOfDepsPosScoring_5
BagOfDepsPosScoring_6
BagOfDepsPosScoring_3
BagOfDepsPosScoring_4
BagOfDepsPosScoring_1
BagOfDepsPosScoring_2
BagOfDepsPosScoring_0
BagOfWordsScoring_0
BagOfWordsScoring_1
TreeSkeletonScoring_12
BagOfWordsScoring_2
TreeSkeletonScoring_13
BagOfWordsScoring_3
TreeSkeletonScoring_14
BagOfWordsScoring_4
BagOfLexesScoringEN_0
TreeSkeletonScoring_15
BagOfWordsScoring_5
BagOfWordsScoring_6
BagOfLexesScoringEN_1
TreeSkeletonScoring_10
TreeSkeletonScoring_11
-0.9053564211404236
0.5978109388718726
0.15395458343362203
-0.08713099384476171
0.42015726594275077
-0.19631200641254826
-0.4298587855758596
0.32348977830237774
0.2280595208144307
-0.17460382710515057
0.022280869571655135
-0.01429586514761095
0.7275164380638895
-0.40492854150999985
0.7387694931555403
-0.4980849089323045
-0.2294074538176109
0.1500459629530726
0.2294762820681882
-0.15965864604341826
-0.4645697627516496
0.24850806467605374
0.009126617744883183
-0.005369771332340548
-0.9754868590708201
0.5732033708483283
-0.04690406983678772
0.03395077497926634
0.08577294690091472
-0.06002541328982342
0.18437799175560718
-0.07534594613943951
-0.4533551281765823
0.24697406214687317
0.012044289218770278
0.0011061436275717471
-0.2809981257665706
0.1947450150610357
-0.2806873517378674
0.1563493027156986
0.6930778810938136
-0.30770776280444206
0.7275164380638895
-0.40492854150999985
0.7387694931555403
-0.4980849089323045
-0.2294074538176109
0.1500459629530726
0.012044289218770278
0.0011061436275717471
-0.4533551281765823
0.24697406214687317
0.18437799175560718
-0.07534594613943951
0.6626101850824174
-0.37078961000089833
0.2978746422316763
-0.21944859185655918
-1.3830743329244277
0.8422754305690539
0.6940373806288773
-0.40159851907235466
0.17886266597587894
-0.1295535513674532
-0.0981257526045793
0.06719935476177603
0.9871827006291289
-0.6878309951115943
-0.3500719332413402
0.20881072487743182
-0.2523598588645231
0.12572789972797874
0.6562043928639014
-0.360759980383292
-0.6505300670299337
0.4738836276650325
0.24155502665668027
-0.18006764090472765
-0.9754868590708201
0.5732033708483283
-0.8256229330541045
0.5237567506889683
-0.4645697627516496
0.24850806467605374
1.8450519646838541
-1.4898915913693116
-0.2806873517378674
0.1563493027156986
1.2825153517748005
-1.538778890967563
-0.5311262651490272
0.41194081997784854
0.6930778810938136
-0.30770776280444206
1.5652043848354689
-1.3219071482677545
1.4438409774648477
-1.2209263336149276
-0.619106809842995
0.4672983099107625
0.022280869571655135
-0.01429586514761095
0.08577294690091472
-0.06002541328982342
