GIS
1
0.0
2
ENTAILMENT
NONENTAILMENT
1
38 0 1
38
BagOfLemmasScoring_2
BagOfDepsScoring_0
BagOfDepsScoring_1
BagOfDepsScoring_2
BagOfLemmasScoring_0
BagOfLemmasScoring_1
BagOfDepsScoring_6
BagOfDepsScoring_5
BagOfDepsScoring_4
BagOfDepsScoring_3
TreeSkeletonScoring_2
BagOfDepsScoring_9
TreeSkeletonScoring_1
BagOfWordsScoring_0
BagOfDepsScoring_8
TreeSkeletonScoring_0
BagOfWordsScoring_1
BagOfDepsScoring_7
TreeSkeletonScoring_12
TreeSkeletonScoring_6
BagOfWordsScoring_2
TreeSkeletonScoring_13
TreeSkeletonScoring_5
BagOfWordsScoring_3
TreeSkeletonScoring_14
TreeSkeletonScoring_4
BagOfWordsScoring_4
TreeSkeletonScoring_15
TreeSkeletonScoring_3
BagOfWordsScoring_5
BagOfWordsScoring_6
BagOfDepsScoring_10
TreeSkeletonScoring_9
BagOfDepsScoring_11
TreeSkeletonScoring_10
TreeSkeletonScoring_8
TreeSkeletonScoring_11
TreeSkeletonScoring_7
0.8613463517862766
-1.3257358491373397
-0.0013585849169940423
0.03061070819033612
0.2674091528621063
-0.5298060674119264
-0.023983298179428087
0.09606032708510265
0.7131062072432929
-0.9520719133043294
-0.17103898390138902
0.2251915512403025
-0.035291671952862334
0.05562450032324588
-0.6223725200449786
1.1965860112949163
-0.8555142145576636
1.3441008180297918
0.20964832755106075
-0.3410645781012145
-0.11576601395683253
0.1641597047439133
0.04143340347486576
-0.06171893442793868
0.08700502058780066
-0.12769426140201748
0.6955438142454194
-0.9616529119199131
0.6836889001065244
-1.2402705638091858
0.028569043491546407
-0.03904629770973833
-0.28365747321577633
0.38341312822146634
-0.09311067081379588
0.13869492405762668
0.6836889001065244
-1.2402705638091858
-0.023983298179428087
0.09606032708510265
0.487794294903326
-0.7782658260101997
0.04143340347486576
-0.06171893442793868
0.2674091528621063
-0.5298060674119264
-1.2956862045904987
1.603298397176857
0.15976124754336068
-0.3072962314007565
-0.0013585849169940423
0.03061070819033612
-1.3406783048326956
1.1198677949746678
-0.5626776152288322
1.4153675445320637
0.019737766576053216
-0.026069563788155267
-1.1693915932202894
1.3853485734403526
-1.075873831653768
1.2753399156778482
0.15976124754336068
-0.3072962314007565
-0.6223725200449786
1.1965860112949163
-0.5626776152288322
1.4153675445320637
-0.035291671952862334
0.05562450032324588
-0.8555142145576636
1.3441008180297918
-0.09311067081379588
0.13869492405762668
0.20964832755106075
-0.3410645781012145
