GIS
1
0.0
2
NONENTAILMENT
ENTAILMENT
1
11 0 1
11
BagOfLemmasScoring_2
BagOfWordsScoring_0
BagOfWordsScoring_1
BagOfWordsScoring_2
BagOfWordsScoring_3
BagOfWordsScoring_4
BagOfWordsScoring_5
BagOfLexesPosScoring_0
BagOfWordsScoring_6
BagOfLemmasScoring_0
BagOfLemmasScoring_1
-0.8866836660371228
0.6203235547244821
-2.0382476441972344
1.4727250837967216
0.052632118700770544
-0.03221824310615403
3.2139818672495823
-2.004922041143991
1.769172703637566
-1.4343227971872832
1.2812037902429367
-1.5152739676442264
1.6087703382921308
-1.3884054660980463
-0.21112501525953828
0.16864553773717383
1.464125349746115
-1.2918411222078352
-0.7382073573549992
0.5684132491145713
-0.6162020475797846
0.520918711653764
