GIS
1
0.0
2
ENTAILMENT
NONENTAILMENT
1
10 0 1
10
BagOfLemmasScoring_2
BagOfWordsScoring_0
BagOfWordsScoring_1
BagOfWordsScoring_2
BagOfWordsScoring_3
BagOfWordsScoring_4
BagOfWordsScoring_5
BagOfWordsScoring_6
BagOfLemmasScoring_0
BagOfLemmasScoring_1
0.22113903313786626
-0.2990781476136763
1.1151496875402995
-1.5267486666249945
0.01295321932270204
-0.004669971350042292
-0.5846152971265396
1.0565451640740133
-1.5462507442546263
1.9078971966314886
-1.6554448097736238
1.3701145028484996
-1.4189059987074546
1.6748419858956356
-1.3459527642902471
1.5891799366681432
0.9404503964298181
-1.247173573832571
0.3628411307291351
-0.4532212959743518
