GIS
1
0.0
2
NONENTAILMENT
ENTAILMENT
1
41 0 1
41
BagOfLemmasScoring_2
BagOfDepsPosScoring_10
BagOfDepsPosScoring_11
BagOfLemmasScoring_0
BagOfLemmasScoring_1
BagOfDepsPosScoring_9
BagOfDepsPosScoring_7
BagOfDepsPosScoring_8
BagOfLexesPosScoring_2
BagOfDepsPosScoring_5
BagOfDepsPosScoring_6
BagOfLexesPosScoring_0
BagOfDepsPosScoring_3
BagOfLexesPosScoring_1
BagOfDepsPosScoring_4
BagOfDepsPosScoring_1
BagOfDepsPosScoring_2
BagOfDepsPosScoring_0
TreeSkeletonScoring_2
TreeSkeletonScoring_1
TreeSkeletonScoring_0
BagOfWordsScoring_0
BagOfWordsScoring_1
TreeSkeletonScoring_12
TreeSkeletonScoring_6
BagOfWordsScoring_2
TreeSkeletonScoring_13
TreeSkeletonScoring_5
BagOfWordsScoring_3
TreeSkeletonScoring_14
TreeSkeletonScoring_4
BagOfWordsScoring_4
TreeSkeletonScoring_15
TreeSkeletonScoring_3
BagOfWordsScoring_5
BagOfWordsScoring_6
TreeSkeletonScoring_9
TreeSkeletonScoring_10
TreeSkeletonScoring_8
TreeSkeletonScoring_11
TreeSkeletonScoring_7
-0.7368758658615255
0.5196641809525194
1.094965693069631
-0.7095770178377908
0.27404913403967845
-0.15085675235231935
-0.5965874120177452
0.4541844826485782
-0.013940186715569463
0.016028424914680355
0.447172153368845
-0.24920315498198822
0.62201064380583
-0.5093104750582295
-2.368061899739819
1.6382912525116056
-0.3299179739942615
0.24958875506357678
-0.40908730194391857
0.2924916296454978
-0.22301702127821849
0.17162302778960928
0.11144159799932757
-0.0817441860553515
0.3663597529875182
-0.2568552802480132
-0.19468423122630976
0.14908785354715812
-0.5810372300173657
0.45365395112973533
-0.5425937902474692
0.35280415418801275
-2.639367756798005
1.4739133262558544
0.20147317799512418
-0.1082128339309258
0.0757774299532198
-0.05274636549708307
-0.00996617966941284
0.007966734362120077
-0.06381964775420212
0.045592204228434734
-1.5957545587271547
1.144572138736711
-0.3562548850969959
0.2803686490639794
1.2071789912328674
-0.7957322040853514
1.3991407310944943
-0.7823462433761015
-0.3235344958286411
0.22539023041966014
-1.2449026897087287
0.6813184758831218
-0.17980322554134437
0.1166108862610883
1.6341726408355306
-1.3225712435411188
0.44120596372638377
-0.2746115837569712
-0.42247777685685806
0.24023333890558995
1.09623661104237
-1.2898706367588846
2.9145256719858628
-1.6561185545463384
-0.05889386722939393
0.04283409059110385
1.3906543633822421
-1.1955478483317072
1.266008905347946
-1.113168410741999
1.0077547096203014
-0.6766553820803783
0.24878494935877019
-0.18259686065380237
0.14760825444487813
-0.09999963528557858
2.0338687077618696
-1.6341048640184932
0.5379865356360451
-0.35334527879551025
