GIS
1
0.0
2
NONENTAILMENT
ENTAILMENT
1
13 0 1
13
BagOfLemmasScoring_2
BagOfLexesPosScoring_2
BagOfLexesPosScoring_0
BagOfLexesPosScoring_1
BagOfLemmasScoring_0
BagOfLemmasScoring_1
BagOfWordsScoring_0
BagOfWordsScoring_1
BagOfWordsScoring_2
BagOfWordsScoring_3
BagOfWordsScoring_4
BagOfWordsScoring_5
BagOfWordsScoring_6
-1.3113003971217334
0.9070523202806379
-0.893431408847972
0.675666173756777
1.5744961069569328
-1.17639111769051
-0.6273451749353974
0.47967812452508335
-0.7893069785004463
0.602674859385788
-0.6970259471097706
0.5871244287888701
-2.331304030523957
1.6745558402736127
-0.04698242460188334
0.0436602100544878
4.011043340229641
-2.5163677939070364
1.8237443540289102
-1.4762117135375559
1.313653139776175
-1.5475253787039969
1.6515052791437999
-1.4216425327228315
1.5084769854473894
-1.3282091621831145
