GIS
1
0.0
2
ENTAILMENT
NONENTAILMENT
1
11 0 1
11
BagOfLemmasScoring_2
BagOfWordsScoring_0
BagOfWordsScoring_1
BagOfWordsScoring_2
BagOfWordsScoring_3
BagOfLexesScoringEN_0
BagOfWordsScoring_4
BagOfWordsScoring_5
BagOfWordsScoring_6
BagOfLemmasScoring_0
BagOfLemmasScoring_1
0.016597137486620013
0.018925798860530706
1.0034232288287417
-1.3779764190709167
0.1765350145375558
-0.22557323166927418
-0.5131698777569951
0.9313989994835651
-1.6608221391184181
2.0525105214726387
0.5757478152310491
-0.7431924443569882
-1.783800586534222
1.479401123063613
-1.5280734412359633
1.8064466703185964
-1.4568079502571636
1.7219715672154903
0.5736525836031735
-0.7592503435348195
0.36604850995861377
-0.45791921372566685
