GIS
1
0.0
2
NONENTAILMENT
ENTAILMENT
1
35 0 1
35
BagOfLemmasScoring_2
BagOfDepsScoring_0
BagOfDepsScoring_1
BagOfDepsScoring_2
BagOfDepsPosScoring_10
BagOfDepsPosScoring_11
BagOfLemmasScoring_0
BagOfLemmasScoring_1
BagOfDepsPosScoring_9
BagOfDepsPosScoring_7
BagOfDepsPosScoring_8
BagOfDepsPosScoring_5
BagOfDepsPosScoring_6
BagOfDepsPosScoring_3
BagOfLexesPosScoring_0
BagOfDepsPosScoring_4
BagOfDepsPosScoring_1
BagOfDepsPosScoring_2
BagOfDepsScoring_6
BagOfDepsPosScoring_0
BagOfDepsScoring_5
BagOfDepsScoring_4
BagOfDepsScoring_3
BagOfDepsScoring_9
BagOfWordsScoring_0
BagOfDepsScoring_8
BagOfWordsScoring_1
BagOfDepsScoring_7
BagOfWordsScoring_2
BagOfWordsScoring_3
BagOfWordsScoring_4
BagOfWordsScoring_5
BagOfWordsScoring_6
BagOfDepsScoring_10
BagOfDepsScoring_11
-0.27035007443910714
0.20807867682456432
-0.21560065805738063
0.13114259308758847
-0.8262591929427398
0.52517177800039
1.4625154585820657
-0.8146139299326955
1.7600647825166962
-1.1411959187612226
0.5259730537478001
-0.29073474783495784
-0.7330268708518781
0.5603145891873801
-0.11559108393554846
0.0978019365159631
0.6096227033005016
-0.34021738040984895
0.5619853023927796
-0.46057442288800265
-3.732101396072322
2.5791617265002658
-0.05763581889820087
0.05291765650658783
-0.36345765257774015
0.2797391315234361
0.2598590351659892
-0.18056029147035654
-0.10971619013415562
0.08770997472659284
-1.0032461383556452
0.7770037777935623
-1.0688320588190188
0.6943803361132977
-4.491446504814014
2.5061200857872996
0.4810411127261977
-0.3525475204640578
0.27485912994433154
-0.14806317351070417
1.753038340846554
-1.178079039786449
-0.08927031807252436
0.07601965880982386
0.7369963266402835
-0.48334720962837735
-1.6537512193205788
0.9029184507700826
-2.1891652285699306
1.571403562387497
1.8253685345742205
-1.2040044633962121
-0.7913833229239814
0.6195967162224346
2.762946272783845
-2.2257410253648895
0.2625203301282849
-0.1399864264475783
1.6706076686259363
-1.3582432500495782
1.1253534739895863
-1.330858293533617
1.4122988661771938
-1.2209838258628491
1.2741651973526473
-1.126547324768787
0.2893681444841909
-0.17766976479822644
3.9783983778038574
-2.2620746890227967
