GIS
1
0.0
2
ENTAILMENT
NONENTAILMENT
1
22 0 1
22
BagOfLemmasScoring_2
BagOfDepsPosScoring_9
BagOfDepsPosScoring_7
BagOfDepsPosScoring_8
BagOfDepsPosScoring_5
BagOfDepsPosScoring_6
BagOfDepsPosScoring_10
BagOfDepsPosScoring_3
BagOfDepsPosScoring_11
BagOfDepsPosScoring_4
BagOfLemmasScoring_0
BagOfDepsPosScoring_1
BagOfDepsPosScoring_2
BagOfLemmasScoring_1
BagOfDepsPosScoring_0
BagOfWordsScoring_0
BagOfWordsScoring_1
BagOfWordsScoring_2
BagOfWordsScoring_3
BagOfWordsScoring_4
BagOfWordsScoring_5
BagOfWordsScoring_6
0.4184062110312762
-0.6206161010410235
0.16842220466310523
-0.28636471212429854
0.1816532692120829
-0.23619248363361678
2.2256551413076973
-3.7618339418314233
-0.8633896935840669
1.624558865947582
-0.40235562461982644
0.5705796309103397
0.9031959992414273
-1.6303982405303883
0.5771682173169674
-0.9112901485940911
-2.0651287083078587
4.81185686876856
-2.698060187591569
4.056190457933797
0.9088410340198967
-1.213672696067263
0.5642283739032936
-1.0076142739269507
1.0864659777436554
-2.4526607716600584
0.33497773156616034
-0.42725412420761194
-0.2891466966483267
0.6008768622071096
1.0695921761459786
-1.4765345275084214
-0.019037557722646023
0.028873623841446525
-0.4084717685613152
0.7418698695173864
-1.4985889482136525
1.8444854573279983
-1.566431995999547
1.2995953939195026
-1.3594936585485433
1.6021566654416313
-1.265038757955472
1.4927606513538112
