GIS
1
0.0
2
ENTAILMENT
NONENTAILMENT
1
11 0 1
11
BagOfLemmasScoring_2
BagOfWordsScoring_0
BagOfWordsScoring_1
BagOfWordsScoring_2
BagOfLexesScoringEN_0
BagOfLexesScoringEN_2
BagOfLexesScoringEN_1
BagOfLexesScoringEN_4
BagOfLemmasScoring_0
BagOfLexesScoringEN_3
BagOfLemmasScoring_1
0.4041915343552899
-0.6010492798572531
0.12747989231638043
-0.17260709154235954
-0.15626203663819008
0.21754767887941306
0.5539808604429041
-0.8548683125566595
-0.013777518036116756
0.021652396921946187
-0.018969793276587623
0.028623392700649144
0.0030974083121617533
-0.0010659135475488551
0.003688513062704272
-0.001853345292963465
0.002227175768123285
1.3282318492123E-4
0.004878186376211842
-0.0034509927502965948
-0.27816551101168796
0.3747868450709723
