GIS
1
0.0
2
ENTAILMENT
NONENTAILMENT
1
11 0 1
11
BagOfLexesScoring_0
BagOfLemmasScoring_2
BagOfLexesScoring_1
BagOfLexesScoring_4
BagOfLexesScoring_2
BagOfWordsScoring_0
BagOfLexesScoring_3
BagOfWordsScoring_1
BagOfWordsScoring_2
BagOfLemmasScoring_0
BagOfLemmasScoring_1
-0.24637545258115107
0.30902353158769036
0.29228373479659603
-0.4091569520416216
0.00973186578638217
-0.010282547553295895
0.04691532293868341
-0.059121651856706675
0.0478117094271627
-0.060344234484266866
0.25332009572985054
-0.34347501663554214
0.0478117094271627
-0.060344234484266866
-0.16312091055044542
0.21636241401889636
0.4533453703400235
-0.6675117308653145
0.0478117094271627
-0.060344234484266866
-0.32581954480953523
0.4139911581021975
